{"learner":{"attributes":{"scikit_learn":"{\"_estimator_type\": \"regressor\"}"},"feature_names":[],"feature_types":[],"gradient_booster":{"model":{"gbtree_model_param":{"num_parallel_tree":"1","num_trees":"137"},"iteration_indptr":[0,1,2,3,4,5,6,7,8,9,10,11,12,13,14,15,16,17,18,19,20,21,22,23,24,25,26,27,28,29,30,31,32,33,34,35,36,37,38,39,40,41,42,43,44,45,46,47,48,49,50,51,52,53,54,55,56,57,58,59,60,61,62,63,64,65,66,67,68,69,70,71,72,73,74,75,76,77,78,79,80,81,82,83,84,85,86,87,88,89,90,91,92,93,94,95,96,97,98,99,100,101,102,103,104,105,106,107,108,109,110,111,112,113,114,115,116,117,118,119,120,121,122,123,124,125,126,127,128,129,130,131,132,133,134,135,136,137],"tree_info":[0,0,0,0,0,0,0,0,0,0,0,0,0,0,0,0,0,0,0,0,0,0,0,0,0,0,0,0,0,0,0,0,0,0,0,0,0,0,0,0,0,0,0,0,0,0,0,0,0,0,0,0,0,0,0,0,0,0,0,0,0,0,0,0,0,0,0,0,0,0,0,0,0,0,0,0,0,0,0,0,0,0,0,0,0,0,0,0,0,0,0,0,0,0,0,0,0,0,0,0,0,0,0,0,0,0,0,0,0,0,0,0,0,0,0,0,0,0,0,0,0,0,0,0,0,0,0,0,0,0,0,0,0,0,0,0,0],"trees":[{"base_weights":[-9.1979286E-4,-7.977824E-2,2.6007324E-1,-1.8890412E-1,-4.459549E-3,1.5658182E-1,3.4644532E-1,-2.6006272E-1,-1.4432234E-1,-4.0860433E-2,3.8741592E-2,1.1935225E-1,1.9890453E-1,2.9328337E-1,4.469667E-1,-1.54379E-2,-2.2582018E-1,-1.6371945E-1,-1.1982695E-1,-6.784486E-2,-2.6281552E-2,1.9300146E-2,6.146754E-2,4.9287262E-3,1.3682684E-1,8.6382935E-3,1.0826274E-2,1.3788108E-2,1.5806623E-2,1.9696278E-2,2.409322E-2,-1.2055826E-2,-1.0531017E-2,-9.038377E-3,-7.6284413E-3,-6.5314774E-3,-5.3450046E-3,-3.974158E-3,-2.7646897E-3,-1.2695958E-3,-9.398489E-3,3.4187586E-4,1.4020383E-3,2.5715856E-3,3.8760616E-3,6.9162184E-3,8.432859E-4],"categories":[],"categories_nodes":[],"categories_segments":[],"categories_sizes":[],"default_left":[0,0,0,0,0,0,0,0,0,0,0,0,0,0,0,0,0,0,0,0,0,0,0,0,0,0,0,0,0,0,0,0,0,0,0,0,0,0,0,0,0,0,0,0,0,0,0],"id":0,"left_children":[1,3,5,7,9,11,13,15,17,19,21,23,25,27,29,-1,31,33,35,37,39,41,43,-1,45,-1,-1,-1,-1,-1,-1,-1,-1,-1,-1,-1,-1,-1,-1,-1,-1,-1,-1,-1,-1,-1,-1],"loss_changes":[6.359702E1,1.950336E1,6.354851E0,3.036499E0,2.2110293E0,4.9307537E-1,1.9530373E0,5.7785034E-1,2.6451492E-1,2.9838312E-1,2.829073E-1,4.8529387E-2,3.4594536E-2,1.2365341E-2,6.350899E-2,0E0,1.1777878E-3,3.3127785E-2,2.4086237E-2,3.515351E-2,5.270782E-2,3.8422227E-2,4.348719E-2,0E0,2.4915695E-2,0E0,0E0,0E0,0E0,0E0,0E0,0E0,0E0,0E0,0E0,0E0,0E0,0E0,0E0,0E0,0E0,0E0,0E0,0E0,0E0,0E0,0E0],"parents":[2147483647,0,0,1,1,2,2,3,3,4,4,5,5,6,6,7,7,8,8,9,9,10,10,11,11,12,12,13,13,14,14,16,16,17,17,18,18,19,19,20,20,21,21,22,22,24,24],"right_children":[2,4,6,8,10,12,14,16,18,20,22,24,26,28,30,-1,32,34,36,38,40,42,44,-1,46,-1,-1,-1,-1,-1,-1,-1,-1,-1,-1,-1,-1,-1,-1,-1,-1,-1,-1,-1,-1,-1,-1],"split_conditions":[5.228943E-1,3.366235E-1,6.834856E-1,2.2830981E-1,4.2887953E-1,5.905162E-1,7.8689605E-1,1.630041E-1,2.897144E-1,3.8214964E-1,4.7098243E-1,5.4578114E-1,6.2447053E-1,7.3226833E-1,8.7297803E-1,-1.54379E-2,2.0121329E-1,2.6111948E-1,3.0844447E-1,3.627544E-1,7.4905884E-1,4.4841596E-1,5.003754E-1,4.9287262E-3,6.6710377E-1,8.6382935E-3,1.0826274E-2,1.3788108E-2,1.5806623E-2,1.9696278E-2,2.409322E-2,-1.2055826E-2,-1.0531017E-2,-9.038377E-3,-7.6284413E-3,-6.5314774E-3,-5.3450046E-3,-3.974158E-3,-2.7646897E-3,-1.2695958E-3,-9.398489E-3,3.4187586E-4,1.4020383E-3,2.5715856E-3,3.8760616E-3,6.9162184E-3,8.432859E-4],"split_indices":[245,245,245,245,245,245,245,240,245,245,245,245,245,245,245,0,245,245,245,245,90,245,245,0,40,0,0,0,0,0,0,0,0,0,0,0,0,0,0,0,0,0,0,0,0,0,0],"split_type":[0,0,0,0,0,0,0,0,0,0,0,0,0,0,0,0,0,0,0,0,0,0,0,0,0,0,0,0,0,0,0,0,0,0,0,0,0,0,0,0,0,0,0,0,0,0,0],"sum_hessian":[3.088E3,2.372E3,7.16E2,9.68E2,1.404E3,3.27E2,3.89E2,3.71E2,5.97E2,7.62E2,6.42E2,1.76E2,1.51E2,2.57E2,1.32E2,1.46E2,2.25E2,3.3E2,2.67E2,2.66E2,4.96E2,3.47E2,2.95E2,8.5E1,9.1E1,7E1,8.1E1,1.66E2,9.1E1,6.2E1,7E1,9.3E1,1.32E2,1.11E2,2.19E2,1.31E2,1.36E2,1.3E2,1.36E2,4.95E2,1E0,1.46E2,2.01E2,1.89E2,1.06E2,8.9E1,2E0],"tree_param":{"num_deleted":"0","num_feature":"250","num_nodes":"47","size_leaf_vector":"1"}},{"base_weights":[-6.408161E-4,-7.3736995E-2,2.5844193E-1,-1.8177697E-1,-2.5672265E-3,2.0132488E-1,3.9848688E-1,-2.5055987E-1,-1.383521E-1,-3.8393743E-2,4.164812E-2,1.437528E-1,2.5973034E-1,1.6526619E-2,2.2293199E-2,-2.976157E-1,-1.0729792E-2,-1.586273E-1,-1.19072706E-1,-6.492832E-2,-2.221882E-2,2.6024036E-2,6.737332E-2,1.1105185E-1,1.709883E-1,1.1453206E-2,1.3486751E-2,-1.618842E-2,-1.3576785E-2,-8.73083E-3,-7.4341944E-3,-6.473708E-3,-5.3482237E-3,-3.7818374E-3,-2.614201E-3,-1.0690369E-3,-9.165175E-3,8.6866826E-4,1.8872104E-3,2.7767005E-3,3.7779473E-3,5.5656107E-3,-2.3074802E-4,7.5483653E-3,9.129143E-3],"categories":[],"categories_nodes":[],"categories_segments":[],"categories_sizes":[],"default_left":[0,0,0,0,0,0,0,0,0,0,0,0,0,0,0,0,0,0,0,0,0,0,0,0,0,0,0,0,0,0,0,0,0,0,0,0,0,0,0,0,0,0,0,0,0],"id":1,"left_children":[1,3,5,7,9,11,13,15,17,19,21,23,25,-1,-1,27,-1,29,31,33,35,37,39,41,43,-1,-1,-1,-1,-1,-1,-1,-1,-1,-1,-1,-1,-1,-1,-1,-1,-1,-1,-1,-1],"loss_changes":[5.912442E1,1.8722685E1,5.415058E0,2.8536568E0,2.3286152E0,1.6103001E0,5.070114E-1,5.403156E-1,2.1369362E-1,3.4706366E-1,2.6271844E-1,2.0277691E-1,2.1059036E-2,0E0,0E0,1.734829E-2,0E0,1.7627716E-2,2.5650501E-2,3.8356423E-2,5.2478746E-2,4.1348457E-2,2.0497322E-2,1.4566064E-2,4.7700405E-3,0E0,0E0,0E0,0E0,0E0,0E0,0E0,0E0,0E0,0E0,0E0,0E0,0E0,0E0,0E0,0E0,0E0,0E0,0E0,0E0],"parents":[2147483647,0,0,1,1,2,2,3,3,4,4,5,5,6,6,7,7,8,8,9,9,10,10,11,11,12,12,15,15,17,17,18,18,19,19,20,20,21,21,22,22,23,23,24,24],"right_children":[2,4,6,8,10,12,14,16,18,20,22,24,26,-1,-1,28,-1,30,32,34,36,38,40,42,44,-1,-1,-1,-1,-1,-1,-1,-1,-1,-1,-1,-1,-1,-1,-1,-1,-1,-1,-1,-1],"split_conditions":[5.271567E-1,3.3126754E-1,7.4905884E-1,2.2830981E-1,4.3394586E-1,6.498914E-1,8.4015566E-1,1.630041E-1,2.8351375E-1,3.83582E-1,4.821346E-1,5.815491E-1,6.952908E-1,1.6526619E-2,2.2293199E-2,1.15638815E-1,-1.0729792E-2,2.571817E-1,3.0260342E-1,3.627544E-1,7.4905884E-1,4.621309E-1,5.003754E-1,6.952908E-1,6.082565E-1,1.1453206E-2,1.3486751E-2,-1.618842E-2,-1.3576785E-2,-8.73083E-3,-7.4341944E-3,-6.473708E-3,-5.3482237E-3,-3.7818374E-3,-2.614201E-3,-1.0690369E-3,-9.165175E-3,8.6866826E-4,1.8872104E-3,2.7767005E-3,3.7779473E-3,5.5656107E-3,-2.3074802E-4,7.5483653E-3,9.129143E-3],"split_indices":[245,245,245,245,245,245,245,240,245,245,245,245,245,0,0,245,0,245,245,245,90,245,245,15,245,0,0,0,0,0,0,0,0,0,0,0,0,0,0,0,0,0,0,0,0],"split_type":[0,0,0,0,0,0,0,0,0,0,0,0,0,0,0,0,0,0,0,0,0,0,0,0,0,0,0,0,0,0,0,0,0,0,0,0,0,0,0,0,0,0,0,0,0],"sum_hessian":[3.12E3,2.434E3,6.86E2,9.66E2,1.468E3,4.89E2,1.97E2,3.72E2,5.94E2,8.11E2,6.57E2,2.48E2,2.41E2,8.9E1,1.08E2,1.54E2,2.18E2,2.86E2,3.08E2,3.06E2,5.05E2,4.1E2,2.47E2,1.15E2,1.33E2,7.6E1,1.65E2,6.5E1,8.9E1,9.1E1,1.95E2,1.49E2,1.59E2,1.57E2,1.49E2,5.04E2,1E0,2.41E2,1.69E2,1.1E2,1.37E2,1.14E2,1E0,5.9E1,7.4E1],"tree_param":{"num_deleted":"0","num_feature":"250","num_nodes":"45","size_leaf_vector":"1"}},{"base_weights":[2.5210772E-3,-6.8123996E-2,2.3501296E-1,-1.6703886E-1,-3.7069733E-3,1.4010225E-1,3.100779E-1,-2.3087172E-1,-1.2762241E-1,-3.797603E-2,3.560117E-2,1.10178314E-1,1.8021752E-1,2.6534042E-1,2.0731127E-2,-1.3787535E-2,-9.888446E-3,-1.4342776E-1,-1.070954E-1,-6.2160835E-2,-2.442036E-2,1.7075606E-2,5.5091314E-2,9.02999E-2,1.2847847E-1,7.89108E-3,1.9492729E-1,1.2334492E-2,1.4562049E-2,-7.702905E-3,-6.682522E-3,-5.8101243E-3,-4.817736E-3,-3.4314387E-3,-2.4409392E-3,-1.1788608E-3,-8.937653E-3,3.293343E-4,1.2549828E-3,2.3378583E-3,3.4910666E-3,5.1692878E-5,4.53094E-3,6.418741E-3,1.3156437E-3,2.8044868E-3,9.732269E-3],"categories":[],"categories_nodes":[],"categories_segments":[],"categories_sizes":[],"default_left":[0,0,0,0,0,0,0,0,0,0,0,0,0,0,0,0,0,0,0,0,0,0,0,0,0,0,0,0,0,0,0,0,0,0,0,0,0,0,0,0,0,0,0,0,0,0,0],"id":2,"left_children":[1,3,5,7,9,11,13,15,17,19,21,23,25,27,-1,-1,-1,29,31,33,35,37,39,41,43,-1,45,-1,-1,-1,-1,-1,-1,-1,-1,-1,-1,-1,-1,-1,-1,-1,-1,-1,-1,-1,-1],"loss_changes":[5.1095913E1,1.52025E1,5.1217957E0,2.338152E0,1.9491904E0,3.6667538E-1,1.831665E0,4.7620773E-1,1.7411041E-1,2.519033E-1,2.424177E-1,5.6424856E-2,1.1592388E-2,6.32782E-2,0E0,0E0,0E0,1.2966633E-2,1.4412403E-2,2.1633267E-2,4.8050404E-2,2.9549904E-2,3.6654234E-2,7.864773E-3,4.3536425E-3,0E0,4.248619E-4,0E0,0E0,0E0,0E0,0E0,0E0,0E0,0E0,0E0,0E0,0E0,0E0,0E0,0E0,0E0,0E0,0E0,0E0,0E0,0E0],"parents":[2147483647,0,0,1,1,2,2,3,3,4,4,5,5,6,6,7,7,8,8,9,9,10,10,11,11,12,12,13,13,17,17,18,18,19,19,20,20,21,21,22,22,23,23,24,24,26,26],"right_children":[2,4,6,8,10,12,14,16,18,20,22,24,26,28,-1,-1,-1,30,32,34,36,38,40,42,44,-1,46,-1,-1,-1,-1,-1,-1,-1,-1,-1,-1,-1,-1,-1,-1,-1,-1,-1,-1,-1,-1],"split_conditions":[5.228943E-1,3.366235E-1,6.742221E-1,2.370588E-1,4.275592E-1,5.9627914E-1,8.1610364E-1,1.6984221E-1,2.920936E-1,3.8214964E-1,4.691654E-1,5.4591113E-1,6.2447053E-1,7.3226833E-1,2.0731127E-2,-1.3787535E-2,-9.888446E-3,2.6913628E-1,3.107516E-1,3.689313E-1,7.366555E-1,4.4841596E-1,5.003754E-1,3.8057306E-1,2.2E1,7.89108E-3,4.4599935E-1,1.2334492E-2,1.4562049E-2,-7.702905E-3,-6.682522E-3,-5.8101243E-3,-4.817736E-3,-3.4314387E-3,-2.4409392E-3,-1.1788608E-3,-8.937653E-3,3.293343E-4,1.2549828E-3,2.3378583E-3,3.4910666E-3,5.1692878E-5,4.53094E-3,6.418741E-3,1.3156437E-3,2.8044868E-3,9.732269E-3],"split_indices":[245,245,245,245,245,245,245,240,245,245,245,240,245,245,0,0,0,245,245,245,70,245,245,220,26,0,0,0,0,0,0,0,0,0,0,0,0,0,0,0,0,0,0,0,0,0,0],"split_type":[0,0,0,0,0,0,0,0,0,0,0,0,0,0,0,0,0,0,0,0,0,0,0,0,0,0,0,0,0,0,0,0,0,0,0,0,0,0,0,0,0,0,0,0,0,0,0],"sum_hessian":[3.109E3,2.385E3,7.24E2,9.4E2,1.445E3,3.21E2,4.03E2,3.57E2,5.83E2,7.72E2,6.73E2,1.86E2,1.35E2,2.87E2,1.16E2,1.41E2,2.16E2,3.26E2,2.57E2,2.76E2,4.96E2,3.46E2,3.27E2,9.2E1,9.4E1,6E1,7.5E1,1.85E2,1.02E2,1.33E2,1.93E2,1.24E2,1.33E2,1.77E2,9.9E1,4.95E2,1E0,1.53E2,1.93E2,2.17E2,1.1E2,1E0,9.1E1,9.3E1,1E0,1E0,7.4E1],"tree_param":{"num_deleted":"0","num_feature":"250","num_nodes":"47","size_leaf_vector":"1"}},{"base_weights":[1.4515265E-3,-6.916075E-2,2.1771125E-1,-1.6076112E-1,-5.0368397E-3,1.3002247E-1,2.9846364E-1,-2.2382858E-1,-1.2275916E-1,-3.5570536E-2,3.016561E-2,9.700682E-2,1.7207369E-1,2.5172997E-1,3.8278905E-1,-2.6850295E-1,-1.9377285E-1,-1.3768454E-1,-1.0269395E-1,-5.779881E-2,-2.2223981E-2,1.5110532E-2,4.957571E-2,4.1038976E-3,1.1656838E-1,7.160529E-3,9.232388E-3,1.1630804E-2,1.3282222E-2,1.7188212E-2,2.114145E-2,-1.45954965E-2,-1.218292E-2,-1.0381979E-2,-8.924078E-3,-7.398257E-3,-6.3412446E-3,-5.60015E-3,-4.63548E-3,-3.2466222E-3,-2.2589036E-3,-1.7689863E-3,-8.418279E-4,2.6359293E-4,1.201811E-3,1.9469127E-3,2.8081862E-3,5.864678E-3,-3.8436253E-4],"categories":[],"categories_nodes":[],"categories_segments":[],"categories_sizes":[],"default_left":[0,0,0,0,0,0,0,0,0,0,0,0,0,0,0,0,0,0,0,0,0,0,0,0,0,0,0,0,0,0,0,0,0,0,0,0,0,0,0,0,0,0,0,0,0,0,0,0,0],"id":3,"left_children":[1,3,5,7,9,11,13,15,17,19,21,23,25,27,29,31,33,35,37,39,41,43,45,-1,47,-1,-1,-1,-1,-1,-1,-1,-1,-1,-1,-1,-1,-1,-1,-1,-1,-1,-1,-1,-1,-1,-1,-1,-1],"loss_changes":[4.752187E1,1.3779066E1,5.385296E0,2.2877216E0,1.485456E0,4.9560833E-1,1.4720955E0,4.3403816E-1,1.670456E-1,2.18252E-1,1.8685651E-1,4.902947E-2,3.5413265E-2,8.781433E-3,7.303238E-2,1.20821E-2,9.744644E-3,1.9787788E-2,1.4157057E-2,2.2895873E-2,3.216715E-2,3.2232367E-2,1.8047988E-2,0E0,1.7522812E-2,0E0,0E0,0E0,0E0,0E0,0E0,0E0,0E0,0E0,0E0,0E0,0E0,0E0,0E0,0E0,0E0,0E0,0E0,0E0,0E0,0E0,0E0,0E0,0E0],"parents":[2147483647,0,0,1,1,2,2,3,3,4,4,5,5,6,6,7,7,8,8,9,9,10,10,11,11,12,12,13,13,14,14,15,15,16,16,17,17,18,18,19,19,20,20,21,21,22,22,24,24],"right_children":[2,4,6,8,10,12,14,16,18,20,22,24,26,28,30,32,34,36,38,40,42,44,46,-1,48,-1,-1,-1,-1,-1,-1,-1,-1,-1,-1,-1,-1,-1,-1,-1,-1,-1,-1,-1,-1,-1,-1,-1,-1],"split_conditions":[5.141015E-1,3.366235E-1,6.834856E-1,2.3292527E-1,4.250855E-1,5.905162E-1,7.8689605E-1,1.630041E-1,2.920936E-1,3.83582E-1,4.691654E-1,5.4578114E-1,6.18415E-1,7.203654E-1,8.9081454E-1,1.15638815E-1,2.0377634E-1,2.6913628E-1,3.0844447E-1,3.689313E-1,3.9738223E-1,4.4841596E-1,4.8563844E-1,4.1038976E-3,7.168753E-1,7.160529E-3,9.232388E-3,1.1630804E-2,1.3282222E-2,1.7188212E-2,2.114145E-2,-1.45954965E-2,-1.218292E-2,-1.0381979E-2,-8.924078E-3,-7.398257E-3,-6.3412446E-3,-5.60015E-3,-4.63548E-3,-3.2466222E-3,-2.2589036E-3,-1.7689863E-3,-8.418279E-4,2.6359293E-4,1.201811E-3,1.9469127E-3,2.8081862E-3,5.864678E-3,-3.8436253E-4],"split_indices":[245,245,245,245,245,245,245,240,245,245,245,245,245,245,245,245,245,245,245,245,245,245,245,0,15,0,0,0,0,0,0,0,0,0,0,0,0,0,0,0,0,0,0,0,0,0,0,0,0],"split_type":[0,0,0,0,0,0,0,0,0,0,0,0,0,0,0,0,0,0,0,0,0,0,0,0,0,0,0,0,0,0,0,0,0,0,0,0,0,0,0,0,0,0,0,0,0,0,0,0,0],"sum_hessian":[3.11E3,2.345E3,7.65E2,9.65E2,1.38E3,3.68E2,3.97E2,3.61E2,6.04E2,7.39E2,6.41E2,2.08E2,1.6E2,2.58E2,1.39E2,1.42E2,2.19E2,3.43E2,2.61E2,2.76E2,4.63E2,3.62E2,2.79E2,1.23E2,8.5E1,5.7E1,1.03E2,1.3E2,1.28E2,8E1,5.9E1,6.2E1,8E1,9.8E1,1.21E2,1.54E2,1.89E2,1.2E2,1.41E2,1.68E2,1.08E2,1.29E2,3.34E2,1.75E2,1.87E2,1.15E2,1.64E2,8.4E1,1E0],"tree_param":{"num_deleted":"0","num_feature":"250","num_nodes":"49","size_leaf_vector":"1"}},{"base_weights":[-1.4920238E-3,-6.472514E-2,2.1168838E-1,-1.5680416E-1,-4.689681E-3,1.3260588E-1,2.8503808E-1,-2.3221897E-1,-1.2711672E-1,-3.381612E-2,3.4231156E-2,9.618325E-2,1.6564247E-1,2.4294157E-1,3.743948E-1,-1.3341959E-2,-2.0635507E-1,-1.5479937E-1,-1.1100518E-1,-5.456802E-2,-1.7524347E-2,1.8204814E-2,5.0828356E-2,3.994326E-3,1.13322794E-1,6.9650714E-3,9.025361E-3,1.1271114E-2,1.3178144E-2,1.6705438E-2,2.0183463E-2,-1.0274199E-2,-2.8328786E-3,-8.334025E-3,-7.0127645E-3,-5.9551643E-3,-4.6903444E-3,-3.3143796E-3,-2.1878446E-3,-1.2913299E-3,-4.5580862E-4,4.6784672E-4,1.2312917E-3,2.1436892E-3,3.1682623E-3,5.670504E-3,1.1373942E-3],"categories":[],"categories_nodes":[],"categories_segments":[],"categories_sizes":[],"default_left":[0,0,0,0,0,0,0,0,0,0,0,0,0,0,0,0,0,0,0,0,0,0,0,0,0,0,0,0,0,0,0,0,0,0,0,0,0,0,0,0,0,0,0,0,0,0,0],"id":4,"left_children":[1,3,5,7,9,11,13,15,17,19,21,23,25,27,29,-1,31,33,35,37,39,41,43,-1,45,-1,-1,-1,-1,-1,-1,-1,-1,-1,-1,-1,-1,-1,-1,-1,-1,-1,-1,-1,-1,-1,-1],"loss_changes":[4.189625E1,1.3249895E1,4.086487E0,2.0884552E0,1.6471817E0,3.9799595E-1,1.293314E0,1.9569206E-1,2.865486E-1,2.7999252E-1,1.6452193E-1,3.564477E-2,4.775524E-2,3.0340195E-2,4.552841E-3,0E0,2.0503998E-3,2.0183563E-2,5.2821636E-2,4.3777227E-2,3.2822087E-2,1.818341E-2,2.7547657E-2,0E0,3.5672784E-3,0E0,0E0,0E0,0E0,0E0,0E0,0E0,0E0,0E0,0E0,0E0,0E0,0E0,0E0,0E0,0E0,0E0,0E0,0E0,0E0,0E0,0E0],"parents":[2147483647,0,0,1,1,2,2,3,3,4,4,5,5,6,6,7,7,8,8,9,9,10,10,11,11,12,12,13,13,14,14,16,16,17,17,18,18,19,19,20,20,21,21,22,22,24,24],"right_children":[2,4,6,8,10,12,14,16,18,20,22,24,26,28,30,-1,32,34,36,38,40,42,44,-1,46,-1,-1,-1,-1,-1,-1,-1,-1,-1,-1,-1,-1,-1,-1,-1,-1,-1,-1,-1,-1,-1,-1],"split_conditions":[5.228943E-1,3.2862657E-1,6.8981767E-1,2.0786999E-1,4.3394586E-1,5.8606607E-1,8.1610364E-1,1.3914901E-1,2.6649535E-1,3.8934812E-1,4.7098243E-1,5.4578114E-1,6.18415E-1,7.3226833E-1,8.9081454E-1,-1.3341959E-2,4.249467E-1,2.370588E-1,2.997371E-1,3.627544E-1,4.0767246E-1,4.5108137E-1,5.003754E-1,3.994326E-3,2.2E1,6.9650714E-3,9.025361E-3,1.1271114E-2,1.3178144E-2,1.6705438E-2,2.0183463E-2,-1.0274199E-2,-2.8328786E-3,-8.334025E-3,-7.0127645E-3,-5.9551643E-3,-4.6903444E-3,-3.3143796E-3,-2.1878446E-3,-1.2913299E-3,-4.5580862E-4,4.6784672E-4,1.2312917E-3,2.1436892E-3,3.1682623E-3,5.670504E-3,1.1373942E-3],"split_indices":[245,245,245,245,245,245,245,240,245,245,245,245,240,245,245,0,0,245,245,245,245,245,245,0,26,0,0,0,0,0,0,0,0,0,0,0,0,0,0,0,0,0,0,0,0,0,0],"split_type":[0,0,0,0,0,0,0,0,0,0,0,0,0,0,0,0,0,0,0,0,0,0,0,0,0,0,0,0,0,0,0,0,0,0,0,0,0,0,0,0,0,0,0,0,0,0,0],"sum_hessian":[3.106E3,2.396E3,7.1E2,9.45E2,1.451E3,3.43E2,3.67E2,2.65E2,6.8E2,8.3E2,6.21E2,1.65E2,1.78E2,2.52E2,1.15E2,1.06E2,1.59E2,2.47E2,4.33E2,3.64E2,4.66E2,3.17E2,3.04E2,8.9E1,7.6E1,7.3E1,1.05E2,1.54E2,9.8E1,5.8E1,5.7E1,1.58E2,1E0,1.2E2,1.27E2,2.77E2,1.56E2,1.66E2,1.98E2,2.3E2,2.36E2,1.37E2,1.8E2,1.94E2,1.1E2,7.5E1,1E0],"tree_param":{"num_deleted":"0","num_feature":"250","num_nodes":"47","size_leaf_vector":"1"}},{"base_weights":[8.522975E-4,-5.9775144E-2,2.0861831E-1,-1.4555643E-1,-6.276016E-4,1.6809155E-1,3.4023264E-1,-2.1925263E-1,-1.1760173E-1,-2.768465E-2,3.614784E-2,1.15764104E-1,2.1468826E-1,1.4318373E-2,1.8638216E-2,-2.447858E-1,-9.199841E-3,-1.4009178E-1,-9.683258E-2,-4.5646016E-2,-1.10791E-2,2.3440951E-2,5.5615176E-2,9.047788E-2,1.3829938E-1,1.8455261E-1,1.1168969E-2,-1.3287787E-2,-1.1116358E-2,-7.7230553E-3,-6.254369E-3,-5.2377363E-3,-3.9919107E-3,-2.8204722E-3,-1.7414698E-3,-9.2949363E-4,-1.6985678E-4,8.282166E-4,1.5604338E-3,2.3112034E-3,3.1532175E-3,4.55608E-3,3.9571253E-4,6.1422456E-3,7.4225916E-3,2.332769E-3,9.221327E-3],"categories":[],"categories_nodes":[],"categories_segments":[],"categories_sizes":[],"default_left":[0,0,0,0,0,0,0,0,0,0,0,0,0,0,0,0,0,0,0,0,0,0,0,0,0,0,0,0,0,0,0,0,0,0,0,0,0,0,0,0,0,0,0,0,0,0,0],"id":5,"left_children":[1,3,5,7,9,11,13,15,17,19,21,23,25,-1,-1,27,-1,29,31,33,35,37,39,41,43,45,-1,-1,-1,-1,-1,-1,-1,-1,-1,-1,-1,-1,-1,-1,-1,-1,-1,-1,-1,-1,-1],"loss_changes":[3.9312996E1,1.2258095E1,3.7032108E0,2.0055294E0,1.4248955E0,1.29426E0,1.925354E-1,1.8873692E-1,3.2134438E-1,2.4555749E-1,1.4884943E-1,1.3393402E-1,4.6678543E-2,0E0,0E0,1.2140274E-2,0E0,5.5068016E-2,4.5030355E-2,4.4730544E-2,2.5100704E-2,1.9400552E-2,1.4146805E-2,1.2438655E-2,3.3986568E-3,3.8969517E-3,0E0,0E0,0E0,0E0,0E0,0E0,0E0,0E0,0E0,0E0,0E0,0E0,0E0,0E0,0E0,0E0,0E0,0E0,0E0,0E0,0E0],"parents":[2147483647,0,0,1,1,2,2,3,3,4,4,5,5,6,6,7,7,8,8,9,9,10,10,11,11,12,12,15,15,17,17,18,18,19,19,20,20,21,21,22,22,23,23,24,24,25,25],"right_children":[2,4,6,8,10,12,14,16,18,20,22,24,26,-1,-1,28,-1,30,32,34,36,38,40,42,44,46,-1,-1,-1,-1,-1,-1,-1,-1,-1,-1,-1,-1,-1,-1,-1,-1,-1,-1,-1,-1,-1],"split_conditions":[5.271567E-1,3.4015262E-1,7.601685E-1,2.1120419E-1,4.4037881E-1,6.498914E-1,8.6044174E-1,1.630041E-1,2.7923563E-1,3.962812E-1,4.821346E-1,5.815491E-1,6.952908E-1,1.4318373E-2,1.8638216E-2,1.15638815E-1,-9.199841E-3,2.494915E-1,3.1340078E-1,3.7257245E-1,4.1508123E-1,4.621309E-1,5.034736E-1,6.577977E-1,6.082565E-1,4.4599935E-1,1.1168969E-2,-1.3287787E-2,-1.1116358E-2,-7.7230553E-3,-6.254369E-3,-5.2377363E-3,-3.9919107E-3,-2.8204722E-3,-1.7414698E-3,-9.2949363E-4,-1.6985678E-4,8.282166E-4,1.5604338E-3,2.3112034E-3,3.1532175E-3,4.55608E-3,3.9571253E-4,6.1422456E-3,7.4225916E-3,2.332769E-3,9.221327E-3],"split_indices":[245,245,245,245,245,245,245,245,245,245,245,245,245,0,0,245,0,245,245,245,245,245,245,35,245,0,0,0,0,0,0,0,0,0,0,0,0,0,0,0,0,0,0,0,0,0,0],"split_type":[0,0,0,0,0,0,0,0,0,0,0,0,0,0,0,0,0,0,0,0,0,0,0,0,0,0,0,0,0,0,0,0,0,0,0,0,0,0,0,0,0,0,0,0,0,0,0],"sum_hessian":[3.119E3,2.415E3,7.04E2,9.85E2,1.43E3,5.4E2,1.64E2,2.69E2,7.16E2,8.24E2,6.06E2,2.56E2,2.84E2,7E1,9.4E1,1.5E2,1.19E2,3.41E2,3.75E2,3.95E2,4.29E2,3.68E2,2.38E2,1.23E2,1.33E2,7.7E1,2.07E2,6.6E1,8.4E1,1.58E2,1.83E2,2.42E2,1.33E2,1.9E2,2.05E2,2.14E2,2.15E2,2.01E2,1.67E2,1.14E2,1.24E2,1.21E2,2E0,6.3E1,7E1,1E0,7.6E1],"tree_param":{"num_deleted":"0","num_feature":"250","num_nodes":"47","size_leaf_vector":"1"}},{"base_weights":[-1.7916954E-3,-5.7322122E-2,1.9838454E-1,-1.4149323E-1,-3.238424E-3,1.6253561E-1,3.2895085E-1,-2.0248638E-1,-1.12292305E-1,-3.32161E-2,2.9323E-2,1.115156E-1,2.0567326E-1,1.4253749E-2,1.8105684E-2,-2.324075E-1,-8.569957E-3,-1.32544E-1,-9.693689E-2,-5.3505402E-2,-2.1116419E-2,1.3257136E-2,4.681891E-2,8.9373775E-2,1.3383521E-1,1.7449582E-1,1.0673082E-2,-1.1583672E-2,-2.4326881E-3,-7.2617214E-3,-6.0226386E-3,-5.2029146E-3,-4.1926084E-3,-3.1512505E-3,-2.2026093E-3,-1.014648E-3,-8.679349E-3,2.176862E-4,1.0337662E-3,1.9321984E-3,2.9482276E-3,3.7077619E-3,5.064999E-3,1.925545E-3,6.6683087E-3,2.2748588E-3,8.722375E-3],"categories":[],"categories_nodes":[],"categories_segments":[],"categories_sizes":[],"default_left":[0,0,0,0,0,0,0,0,0,0,0,0,0,0,0,0,0,0,0,0,0,0,0,0,0,0,0,0,0,0,0,0,0,0,0,0,0,0,0,0,0,0,0,0,0,0,0],"id":6,"left_children":[1,3,5,7,9,11,13,15,17,19,21,23,25,-1,-1,27,-1,29,31,33,35,37,39,41,43,45,-1,-1,-1,-1,-1,-1,-1,-1,-1,-1,-1,-1,-1,-1,-1,-1,-1,-1,-1,-1,-1],"loss_changes":[3.444834E1,1.1043386E1,3.0966225E0,1.6674843E0,1.4436731E0,1.1435328E0,1.1063576E-1,2.3343277E-1,1.8741798E-1,1.879006E-1,1.9866991E-1,1.09116554E-1,4.5378685E-2,0E0,0E0,1.3386726E-2,0E0,2.465725E-2,2.7464628E-2,2.3329496E-2,4.702276E-2,2.4808243E-2,3.134018E-2,1.5788198E-2,1.847744E-4,2.7649403E-3,0E0,0E0,0E0,0E0,0E0,0E0,0E0,0E0,0E0,0E0,0E0,0E0,0E0,0E0,0E0,0E0,0E0,0E0,0E0,0E0,0E0],"parents":[2147483647,0,0,1,1,2,2,3,3,4,4,5,5,6,6,7,7,8,8,9,9,10,10,11,11,12,12,15,15,17,17,18,18,19,19,20,20,21,21,22,22,23,23,24,24,25,25],"right_children":[2,4,6,8,10,12,14,16,18,20,22,24,26,-1,-1,28,-1,30,32,34,36,38,40,42,44,46,-1,-1,-1,-1,-1,-1,-1,-1,-1,-1,-1,-1,-1,-1,-1,-1,-1,-1,-1,-1,-1],"split_conditions":[5.271567E-1,3.2862657E-1,7.665919E-1,2.1618104E-1,4.2627373E-1,6.498914E-1,8.7297803E-1,1.630041E-1,2.74884E-1,3.8001385E-1,4.691654E-1,5.8606607E-1,6.952908E-1,1.4253749E-2,1.8105684E-2,3.1991985E-1,-8.569957E-3,2.494915E-1,3.0260342E-1,3.5706583E-1,7.366555E-1,4.4841596E-1,5.003754E-1,5.539153E-1,3.5913637E-1,4.4599935E-1,1.0673082E-2,-1.1583672E-2,-2.4326881E-3,-7.2617214E-3,-6.0226386E-3,-5.2029146E-3,-4.1926084E-3,-3.1512505E-3,-2.2026093E-3,-1.014648E-3,-8.679349E-3,2.176862E-4,1.0337662E-3,1.9321984E-3,2.9482276E-3,3.7077619E-3,5.064999E-3,1.925545E-3,6.6683087E-3,2.2748588E-3,8.722375E-3],"split_indices":[245,245,245,245,245,245,245,245,245,245,245,240,245,0,0,0,0,245,245,245,70,245,245,245,0,0,0,0,0,0,0,0,0,0,0,0,0,0,0,0,0,0,0,0,0,0,0],"split_type":[0,0,0,0,0,0,0,0,0,0,0,0,0,0,0,0,0,0,0,0,0,0,0,0,0,0,0,0,0,0,0,0,0,0,0,0,0,0,0,0,0,0,0,0,0,0,0],"sum_hessian":[3.097E3,2.425E3,6.72E2,9.48E2,1.477E3,5.29E2,1.43E2,3.05E2,6.43E2,7.69E2,7.08E2,2.44E2,2.85E2,7E1,7.3E1,1.49E2,1.56E2,2.74E2,3.69E2,2.86E2,4.83E2,3.7E2,3.38E2,1.25E2,1.19E2,7E1,2.15E2,1.48E2,1E0,1.18E2,1.56E2,2.22E2,1.47E2,1.34E2,1.52E2,4.82E2,1E0,1.71E2,1.99E2,2.1E2,1.28E2,6.1E1,6.4E1,1E0,1.18E2,1E0,6.9E1],"tree_param":{"num_deleted":"0","num_feature":"250","num_nodes":"47","size_leaf_vector":"1"}},{"base_weights":[5.390847E-4,-5.5702485E-2,1.8506648E-1,-1.3262716E-1,-3.221935E-3,1.1162414E-1,2.4235512E-1,-1.8492474E-1,-1.0247859E-1,-2.9789316E-2,2.7643258E-2,8.934499E-2,7.2776335E-3,2.0452076E-1,3.1077296E-1,-2.1528517E-1,-7.824828E-3,-1.1817507E-1,-8.6552076E-2,-4.395328E-2,-1.528425E-2,1.4730505E-2,4.5704994E-2,7.500306E-2,1.0715073E-1,9.36731E-3,1.0800342E-2,1.3800324E-2,1.6844729E-2,-1.205883E-2,-9.8868245E-3,-6.465119E-3,-5.4908083E-3,-4.7151255E-3,-3.8346178E-3,-2.7105738E-3,-1.7100181E-3,-7.159648E-4,-8.463887E-3,3.7535303E-4,1.1820475E-3,1.8874444E-3,2.6932578E-3,3.76873E-3,-6.5115E-4,-5.463016E-4,5.395407E-3],"categories":[],"categories_nodes":[],"categories_segments":[],"categories_sizes":[],"default_left":[0,0,0,0,0,0,0,0,0,0,0,0,0,0,0,0,0,0,0,0,0,0,0,0,0,0,0,0,0,0,0,0,0,0,0,0,0,0,0,0,0,0,0,0,0,0,0],"id":7,"left_children":[1,3,5,7,9,11,13,15,17,19,21,23,-1,25,27,29,-1,31,33,35,37,39,41,43,45,-1,-1,-1,-1,-1,-1,-1,-1,-1,-1,-1,-1,-1,-1,-1,-1,-1,-1,-1,-1,-1,-1],"loss_changes":[3.2255093E1,9.615826E0,3.0275288E0,1.504137E0,1.1627738E0,2.3611999E-1,9.899788E-1,2.5806713E-1,1.4351559E-1,1.5588051E-1,1.5232348E-1,4.2526364E-2,0E0,1.3614655E-2,3.9447784E-2,2.4731636E-2,0E0,1.363039E-2,1.6898394E-2,3.708595E-2,4.821495E-2,2.4814136E-2,1.5866518E-2,9.99558E-3,1.6635656E-2,0E0,0E0,0E0,0E0,0E0,0E0,0E0,0E0,0E0,0E0,0E0,0E0,0E0,0E0,0E0,0E0,0E0,0E0,0E0,0E0,0E0,0E0],"parents":[2147483647,0,0,1,1,2,2,3,3,4,4,5,5,6,6,7,7,8,8,9,9,10,10,11,11,13,13,14,14,15,15,17,17,18,18,19,19,20,20,21,21,22,22,23,23,24,24],"right_children":[2,4,6,8,10,12,14,16,18,20,22,24,-1,26,28,30,-1,32,34,36,38,40,42,44,46,-1,-1,-1,-1,-1,-1,-1,-1,-1,-1,-1,-1,-1,-1,-1,-1,-1,-1,-1,-1,-1,-1],"split_conditions":[5.228943E-1,3.338717E-1,6.834856E-1,2.2585909E-1,4.275592E-1,6.082565E-1,7.8689605E-1,1.6984221E-1,2.8351375E-1,3.9432317E-1,4.737426E-1,5.68177E-1,7.2776335E-3,7.168753E-1,8.7297803E-1,1.15638815E-1,-7.824828E-3,2.571817E-1,3.0596304E-1,3.689313E-1,7.203654E-1,4.5524454E-1,4.983661E-1,6.952908E-1,3.8459083E-1,9.36731E-3,1.0800342E-2,1.3800324E-2,1.6844729E-2,-1.205883E-2,-9.8868245E-3,-6.465119E-3,-5.4908083E-3,-4.7151255E-3,-3.8346178E-3,-2.7105738E-3,-1.7100181E-3,-7.159648E-4,-8.463887E-3,3.7535303E-4,1.1820475E-3,1.8874444E-3,2.6932578E-3,3.76873E-3,-6.5115E-4,-5.463016E-4,5.395407E-3],"split_indices":[245,245,245,245,245,245,245,240,245,245,245,245,0,245,235,245,0,245,245,245,70,245,245,10,195,0,0,0,0,0,0,0,0,0,0,0,0,0,0,0,0,0,0,0,0,0,0],"split_type":[0,0,0,0,0,0,0,0,0,0,0,0,0,0,0,0,0,0,0,0,0,0,0,0,0,0,0,0,0,0,0,0,0,0,0,0,0,0,0,0,0,0,0,0,0,0,0],"sum_hessian":[3.106E3,2.381E3,7.25E2,9.65E2,1.416E3,3.19E2,4.06E2,3.51E2,6.14E2,7.61E2,6.55E2,1.97E2,1.22E2,2.64E2,1.42E2,1.63E2,1.88E2,3.06E2,3.08E2,3.84E2,3.77E2,3.83E2,2.72E2,1.12E2,8.5E1,1.26E2,1.38E2,7.1E1,7.1E1,5.5E1,1.08E2,1.12E2,1.94E2,1.57E2,1.51E2,1.79E2,2.05E2,3.76E2,1E0,2.15E2,1.68E2,1.46E2,1.26E2,1.11E2,1E0,1E0,8.4E1],"tree_param":{"num_deleted":"0","num_feature":"250","num_nodes":"47","size_leaf_vector":"1"}},{"base_weights":[-9.0069923E-4,-5.490758E-2,1.6953965E-1,-1.2783578E-1,-5.9955916E-3,9.593575E-2,2.2743034E-1,-1.889698E-1,-1.0385186E-1,-3.323179E-2,2.0277446E-2,6.8327144E-2,1.2019469E-1,1.914899E-1,2.9871356E-1,-2.1823612E-1,-1.6920051E-1,-1.2312175E-1,-8.78498E-2,-5.2901477E-2,-2.2921586E-2,6.2724897E-3,3.6282316E-2,6.8921484E-2,-6.349854E-4,1.0577718E-1,6.7328466E-3,8.807531E-3,1.0235661E-2,1.3330779E-2,1.650322E-2,-1.0897583E-2,-2.1780487E-3,-8.785719E-3,-7.3394305E-3,-6.6881473E-3,-5.5633886E-3,-4.711212E-3,-3.785839E-3,-3.1457513E-3,-2.2671246E-3,-1.5588647E-3,-7.472954E-4,-1.1558293E-4,7.013225E-4,1.3980903E-3,2.2206665E-3,3.1753443E-3,4.169278E-3,1.4445412E-3,5.2766395E-3],"categories":[],"categories_nodes":[],"categories_segments":[],"categories_sizes":[],"default_left":[0,0,0,0,0,0,0,0,0,0,0,0,0,0,0,0,0,0,0,0,0,0,0,0,0,0,0,0,0,0,0,0,0,0,0,0,0,0,0,0,0,0,0,0,0,0,0,0,0,0,0],"id":8,"left_children":[1,3,5,7,9,11,13,15,17,19,21,23,25,27,29,31,33,35,37,39,41,43,45,47,-1,49,-1,-1,-1,-1,-1,-1,-1,-1,-1,-1,-1,-1,-1,-1,-1,-1,-1,-1,-1,-1,-1,-1,-1,-1,-1],"loss_changes":[2.895888E1,8.520948E0,3.203743E0,1.3864927E0,1.0246655E0,2.1615553E-1,1.0265064E0,1.1871147E-1,2.0225954E-1,1.413548E-1,1.6317594E-1,8.546948E-3,2.498889E-2,2.2149086E-2,5.3230286E-2,1.3344288E-2,1.1920929E-3,2.4785995E-2,2.3873568E-2,1.5351057E-2,3.041248E-2,2.6373364E-2,2.2063315E-2,6.44058E-3,0E0,5.954504E-4,0E0,0E0,0E0,0E0,0E0,0E0,0E0,0E0,0E0,0E0,0E0,0E0,0E0,0E0,0E0,0E0,0E0,0E0,0E0,0E0,0E0,0E0,0E0,0E0,0E0],"parents":[2147483647,0,0,1,1,2,2,3,3,4,4,5,5,6,6,7,7,8,8,9,9,10,10,11,11,12,12,13,13,14,14,15,15,16,16,17,17,18,18,19,19,20,20,21,21,22,22,23,23,25,25],"right_children":[2,4,6,8,10,12,14,16,18,20,22,24,26,28,30,32,34,36,38,40,42,44,46,48,-1,50,-1,-1,-1,-1,-1,-1,-1,-1,-1,-1,-1,-1,-1,-1,-1,-1,-1,-1,-1,-1,-1,-1,-1,-1,-1],"split_conditions":[5.141015E-1,3.2862657E-1,6.6710377E-1,2.0786999E-1,4.177495E-1,5.68177E-1,7.8689605E-1,1.3914901E-1,2.7358186E-1,3.7257245E-1,4.621309E-1,6.952908E-1,6.124993E-1,7.168753E-1,8.9081454E-1,3.0260342E-1,1.930495E-1,2.4581465E-1,3.0260342E-1,3.4912756E-1,3.9738223E-1,4.383313E-1,4.8563844E-1,5.4578114E-1,-6.349854E-4,3.5913637E-1,6.7328466E-3,8.807531E-3,1.0235661E-2,1.3330779E-2,1.650322E-2,-1.0897583E-2,-2.1780487E-3,-8.785719E-3,-7.3394305E-3,-6.6881473E-3,-5.5633886E-3,-4.711212E-3,-3.785839E-3,-3.1457513E-3,-2.2671246E-3,-1.5588647E-3,-7.472954E-4,-1.1558293E-4,7.013225E-4,1.3980903E-3,2.2206665E-3,3.1753443E-3,4.169278E-3,1.4445412E-3,5.2766395E-3],"split_indices":[245,245,245,245,245,245,245,245,245,245,245,10,245,245,245,0,245,245,245,245,245,245,245,245,0,10,0,0,0,0,0,0,0,0,0,0,0,0,0,0,0,0,0,0,0,0,0,0,0,0,0],"split_type":[0,0,0,0,0,0,0,0,0,0,0,0,0,0,0,0,0,0,0,0,0,0,0,0,0,0,0,0,0,0,0,0,0,0,0,0,0,0,0,0,0,0,0,0,0,0,0,0,0,0,0],"sum_hessian":[3.144E3,2.388E3,7.56E2,9.58E2,1.43E3,3.34E2,4.22E2,2.68E2,6.9E2,7.02E2,7.28E2,1.58E2,1.76E2,2.83E2,1.39E2,1.04E2,1.64E2,3.1E2,3.8E2,2.4E2,4.62E2,3.89E2,3.39E2,1.57E2,1E0,9.5E1,8.1E1,1.51E2,1.32E2,7.8E1,6.1E1,1.03E2,1E0,1.15E2,4.9E1,1.46E2,1.64E2,2.32E2,1.48E2,9.5E1,1.45E2,2.21E2,2.41E2,1.86E2,2.03E2,1.75E2,1.64E2,1.22E2,3.5E1,1E0,9.4E1],"tree_param":{"num_deleted":"0","num_feature":"250","num_nodes":"51","size_leaf_vector":"1"}},{"base_weights":[5.0679524E-4,-4.6669886E-2,1.797921E-1,-1.1525445E-1,1.9055022E-3,1.4741756E-1,2.8387234E-1,-1.6342632E-1,-8.774102E-2,-2.1632355E-2,3.1048138E-2,1.060753E-1,1.789741E-1,1.2605241E-2,1.5680738E-2,-1.9499618E-1,-6.9931485E-3,-1.01237565E-1,-7.118121E-2,-3.5313807E-2,-1.0328414E-2,1.939172E-2,4.8943125E-2,9.257355E-2,6.200007E-3,8.0626495E-3,9.420621E-3,-1.0662608E-2,-8.783578E-3,-5.4267896E-3,-4.6855207E-3,-3.8563388E-3,-3.0374054E-3,-2.1885007E-3,-1.4657833E-3,-4.7587298E-4,-8.250904E-3,6.8213727E-4,1.2900571E-3,2.0945447E-3,2.8840008E-3,3.6722906E-3,4.8882305E-3],"categories":[],"categories_nodes":[],"categories_segments":[],"categories_sizes":[],"default_left":[0,0,0,0,0,0,0,0,0,0,0,0,0,0,0,0,0,0,0,0,0,0,0,0,0,0,0,0,0,0,0,0,0,0,0,0,0,0,0,0,0,0,0],"id":9,"left_children":[1,3,5,7,9,11,13,15,17,19,21,23,25,-1,-1,27,-1,29,31,33,35,37,39,41,-1,-1,-1,-1,-1,-1,-1,-1,-1,-1,-1,-1,-1,-1,-1,-1,-1,-1,-1],"loss_changes":[2.6025463E1,8.115807E0,2.1180344E0,1.3242874E0,9.795297E-1,6.2158203E-1,6.4520836E-2,2.3338604E-1,1.3695145E-1,1.21812135E-1,1.3213229E-1,4.301572E-2,1.8652916E-2,0E0,0E0,1.5613079E-2,0E0,9.229183E-3,1.4272571E-2,1.6820341E-2,4.8714448E-2,1.4099911E-2,1.3056695E-2,6.836772E-3,0E0,0E0,0E0,0E0,0E0,0E0,0E0,0E0,0E0,0E0,0E0,0E0,0E0,0E0,0E0,0E0,0E0,0E0,0E0],"parents":[2147483647,0,0,1,1,2,2,3,3,4,4,5,5,6,6,7,7,8,8,9,9,10,10,11,11,12,12,15,15,17,17,18,18,19,19,20,20,21,21,22,22,23,23],"right_children":[2,4,6,8,10,12,14,16,18,20,22,24,26,-1,-1,28,-1,30,32,34,36,38,40,42,-1,-1,-1,-1,-1,-1,-1,-1,-1,-1,-1,-1,-1,-1,-1,-1,-1,-1,-1],"split_conditions":[5.416866E-1,3.4912756E-1,7.665919E-1,2.3292527E-1,4.383313E-1,6.577977E-1,8.9081454E-1,1.6984221E-1,2.944206E-1,3.962812E-1,4.8563844E-1,6.082565E-1,7.0814764E-1,1.2605241E-2,1.5680738E-2,1.2283551E-1,-6.9931485E-3,2.6913628E-1,3.2255727E-1,3.7257245E-1,7.425538E-1,4.621309E-1,5.141015E-1,5.614235E-1,6.200007E-3,8.0626495E-3,9.420621E-3,-1.0662608E-2,-8.783578E-3,-5.4267896E-3,-4.6855207E-3,-3.8563388E-3,-3.0374054E-3,-2.1885007E-3,-1.4657833E-3,-4.7587298E-4,-8.250904E-3,6.8213727E-4,1.2900571E-3,2.0945447E-3,2.8840008E-3,3.6722906E-3,4.8882305E-3],"split_indices":[245,245,245,245,245,245,245,245,245,245,245,245,245,0,0,245,0,245,245,245,90,245,245,245,0,0,0,0,0,0,0,0,0,0,0,0,0,0,0,0,0,0,0],"split_type":[0,0,0,0,0,0,0,0,0,0,0,0,0,0,0,0,0,0,0,0,0,0,0,0,0,0,0,0,0,0,0,0,0,0,0,0,0,0,0,0,0,0,0],"sum_hessian":[3.075E3,2.435E3,6.4E2,1.009E3,1.426E3,4.9E2,1.5E2,3.65E2,6.44E2,7.89E2,6.37E2,2.14E2,2.76E2,8.2E1,6.8E1,1.49E2,2.16E2,3.52E2,2.92E2,3.56E2,4.33E2,3.87E2,2.5E2,1.28E2,8.6E1,1.15E2,1.61E2,6.6E1,8.3E1,1.55E2,1.97E2,1.73E2,1.19E2,1.39E2,2.17E2,4.32E2,1E0,2.1E2,1.77E2,1.47E2,1.03E2,3.4E1,9.4E1],"tree_param":{"num_deleted":"0","num_feature":"250","num_nodes":"43","size_leaf_vector":"1"}},{"base_weights":[9.554435E-5,-4.6722945E-2,1.6285178E-1,-1.1426961E-1,-3.382786E-3,1.2746988E-1,2.507549E-1,-1.7200556E-1,-9.464596E-2,-2.7486335E-2,2.2907482E-2,8.776671E-2,1.6028184E-1,1.0438309E-2,1.4223284E-2,-2.0058924E-1,-7.6469495E-3,-1.1752214E-1,-8.334488E-2,-4.790443E-2,-1.9350624E-2,1.2059846E-2,4.0525347E-2,7.10042E-2,5.1880553E-3,6.639957E-3,8.323392E-3,-1.0030043E-2,-1.8592834E-3,-6.2014875E-3,-5.2203042E-3,-4.454054E-3,-3.4441948E-3,-2.6518006E-3,-2.0674902E-3,-9.33334E-4,-8.0460785E-3,1.8955866E-4,9.697822E-4,1.5929063E-3,2.4286862E-3,3.0681826E-3,3.984838E-3],"categories":[],"categories_nodes":[],"categories_segments":[],"categories_sizes":[],"default_left":[0,0,0,0,0,0,0,0,0,0,0,0,0,0,0,0,0,0,0,0,0,0,0,0,0,0,0,0,0,0,0,0,0,0,0,0,0,0,0,0,0,0,0],"id":10,"left_children":[1,3,5,7,9,11,13,15,17,19,21,23,25,-1,-1,27,-1,29,31,33,35,37,39,41,-1,-1,-1,-1,-1,-1,-1,-1,-1,-1,-1,-1,-1,-1,-1,-1,-1,-1,-1],"loss_changes":[2.3774393E1,7.0929046E0,2.13583E0,1.0566626E0,9.36588E-1,6.359997E-1,2.277565E-1,9.197998E-2,1.7349958E-1,1.2714827E-1,1.3462761E-1,5.6509376E-2,3.0732632E-2,0E0,0E0,1.3173342E-2,0E0,8.071423E-3,3.629613E-2,5.327642E-3,4.0524647E-2,2.6963383E-2,1.7487168E-2,5.010426E-3,0E0,0E0,0E0,0E0,0E0,0E0,0E0,0E0,0E0,0E0,0E0,0E0,0E0,0E0,0E0,0E0,0E0,0E0,0E0],"parents":[2147483647,0,0,1,1,2,2,3,3,4,4,5,5,6,6,7,7,8,8,9,9,10,10,11,11,12,12,15,15,17,17,18,18,19,19,20,20,21,21,22,22,23,23],"right_children":[2,4,6,8,10,12,14,16,18,20,22,24,26,-1,-1,28,-1,30,32,34,36,38,40,42,-1,-1,-1,-1,-1,-1,-1,-1,-1,-1,-1,-1,-1,-1,-1,-1,-1,-1,-1],"split_conditions":[5.271567E-1,3.2862657E-1,7.425538E-1,2.0377634E-1,4.250855E-1,6.334734E-1,8.4015566E-1,1.3914901E-1,2.6283813E-1,3.7078035E-1,4.772344E-1,5.815491E-1,6.742221E-1,1.0438309E-2,1.4223284E-2,3.0260342E-1,-7.6469495E-3,2.370588E-1,2.997371E-1,3.5268292E-1,7.366555E-1,4.5108137E-1,5.003754E-1,5.4591113E-1,5.1880553E-3,6.639957E-3,8.323392E-3,-1.0030043E-2,-1.8592834E-3,-6.2014875E-3,-5.2203042E-3,-4.454054E-3,-3.4441948E-3,-2.6518006E-3,-2.0674902E-3,-9.33334E-4,-8.0460785E-3,1.8955866E-4,9.697822E-4,1.5929063E-3,2.4286862E-3,3.0681826E-3,3.984838E-3],"split_indices":[245,245,245,245,245,245,245,245,245,245,245,245,245,0,0,0,0,245,245,245,110,245,245,240,0,0,0,0,0,0,0,0,0,0,0,0,0,0,0,0,0,0,0],"split_type":[0,0,0,0,0,0,0,0,0,0,0,0,0,0,0,0,0,0,0,0,0,0,0,0,0,0,0,0,0,0,0,0,0,0,0,0,0,0,0,0,0,0,0],"sum_hessian":[3.118E3,2.422E3,6.96E2,9.46E2,1.476E3,4.98E2,1.98E2,2.38E2,7.08E2,7.7E2,7.06E2,2.27E2,2.71E2,9.6E1,1.02E2,8.8E1,1.5E2,2.31E2,4.77E2,2.18E2,5.52E2,4.38E2,2.68E2,1.16E2,1.11E2,6.3E1,2.08E2,8.7E1,1E0,1.39E2,9.2E1,3.24E2,1.53E2,1.12E2,1.06E2,5.51E2,1E0,2.09E2,2.29E2,1.36E2,1.32E2,6.2E1,5.4E1],"tree_param":{"num_deleted":"0","num_feature":"250","num_nodes":"43","size_leaf_vector":"1"}},{"base_weights":[5.931041E-4,-4.3509424E-2,1.5628178E-1,-1.0472368E-1,3.7977687E-4,1.20161094E-1,2.3440692E-1,-1.5572442E-1,-8.283208E-2,-1.9894522E-2,2.7116302E-2,8.530343E-2,1.5352014E-1,9.606473E-3,1.34251695E-2,-1.8083599E-1,-6.604222E-3,-9.871342E-2,-6.860042E-2,-3.1954516E-2,-9.285894E-3,1.701934E-2,4.1045994E-2,6.849794E-2,9.943126E-2,1.2664326E-1,7.885627E-3,-1.0817133E-2,-8.497157E-3,-5.5278814E-3,-4.598846E-3,-3.774123E-3,-2.8578073E-3,-1.9021542E-3,-1.2724722E-3,-4.2594277E-4,-7.846337E-3,6.3997967E-4,1.220671E-3,1.7101886E-3,2.403263E-3,3.4697226E-3,-2.3406444E-4,-9.138714E-4,4.990814E-3,1.5055928E-3,6.3622235E-3],"categories":[],"categories_nodes":[],"categories_segments":[],"categories_sizes":[],"default_left":[0,0,0,0,0,0,0,0,0,0,0,0,0,0,0,0,0,0,0,0,0,0,0,0,0,0,0,0,0,0,0,0,0,0,0,0,0,0,0,0,0,0,0,0,0,0,0],"id":11,"left_children":[1,3,5,7,9,11,13,15,17,19,21,23,25,-1,-1,27,-1,29,31,33,35,37,39,41,43,45,-1,-1,-1,-1,-1,-1,-1,-1,-1,-1,-1,-1,-1,-1,-1,-1,-1,-1,-1,-1,-1],"loss_changes":[2.1649263E1,6.6011267E0,1.9358997E0,1.132617E0,7.7677554E-1,5.427313E-1,2.7023315E-1,1.510005E-1,1.5596056E-1,1.0397437E-1,8.6221576E-2,4.9221516E-2,1.4541626E-2,0E0,0E0,1.40452385E-2,0E0,1.5661716E-2,2.6979804E-2,1.4338732E-2,4.4383235E-2,1.0931194E-2,1.0912925E-2,1.1597753E-2,1.8033385E-2,2.6150346E-3,0E0,0E0,0E0,0E0,0E0,0E0,0E0,0E0,0E0,0E0,0E0,0E0,0E0,0E0,0E0,0E0,0E0,0E0,0E0,0E0,0E0],"parents":[2147483647,0,0,1,1,2,2,3,3,4,4,5,5,6,6,7,7,8,8,9,9,10,10,11,11,12,12,15,15,17,17,18,18,19,19,20,20,21,21,22,22,23,23,24,24,25,25],"right_children":[2,4,6,8,10,12,14,16,18,20,22,24,26,-1,-1,28,-1,30,32,34,36,38,40,42,44,46,-1,-1,-1,-1,-1,-1,-1,-1,-1,-1,-1,-1,-1,-1,-1,-1,-1,-1,-1,-1,-1],"split_conditions":[5.302476E-1,3.4614685E-1,7.366555E-1,2.2106957E-1,4.383313E-1,6.415174E-1,8.2740295E-1,1.630041E-1,2.8351375E-1,3.9738223E-1,4.821346E-1,5.815491E-1,6.742221E-1,9.606473E-3,1.34251695E-2,8.376215E-2,-6.604222E-3,2.494915E-1,3.1560493E-1,3.7516114E-1,7.425538E-1,4.6605027E-1,5.0550985E-1,6.6710377E-1,4.3411627E-1,4.4599935E-1,7.885627E-3,-1.0817133E-2,-8.497157E-3,-5.5278814E-3,-4.598846E-3,-3.774123E-3,-2.8578073E-3,-1.9021542E-3,-1.2724722E-3,-4.2594277E-4,-7.846337E-3,6.3997967E-4,1.220671E-3,1.7101886E-3,2.403263E-3,3.4697226E-3,-2.3406444E-4,-9.138714E-4,4.990814E-3,1.5055928E-3,6.3622235E-3],"split_indices":[245,245,245,245,245,245,245,245,245,245,245,245,245,0,0,245,0,245,245,245,90,245,245,40,165,0,0,0,0,0,0,0,0,0,0,0,0,0,0,0,0,0,0,0,0,0,0],"split_type":[0,0,0,0,0,0,0,0,0,0,0,0,0,0,0,0,0,0,0,0,0,0,0,0,0,0,0,0,0,0,0,0,0,0,0,0,0,0,0,0,0,0,0,0,0,0,0],"sum_hessian":[3.151E3,2.456E3,6.95E2,1.025E3,1.431E3,4.77E2,2.18E2,3.06E2,7.19E2,8.14E2,6.17E2,2.35E2,2.42E2,1.05E2,1.13E2,1.42E2,1.64E2,3.37E2,3.82E2,3.8E2,4.34E2,3.59E2,2.58E2,1.1E2,1.25E2,4.4E1,1.98E2,2.5E1,1.17E2,1.04E2,2.33E2,2.25E2,1.57E2,1.87E2,1.93E2,4.33E2,1E0,2.34E2,1.25E2,1.39E2,1.19E2,1.08E2,2E0,1E0,1.24E2,1E0,4.3E1],"tree_param":{"num_deleted":"0","num_feature":"250","num_nodes":"47","size_leaf_vector":"1"}},{"base_weights":[2.2867782E-5,-4.3998994E-2,1.3795413E-1,-1.0158159E-1,-2.407497E-3,8.126758E-2,1.861261E-1,-1.5381712E-1,-8.291983E-2,-2.2802379E-2,1.9301865E-2,6.126366E-2,1.07224636E-1,1.5678E-1,2.4452648E-1,-8.950487E-3,-1.380983E-1,-9.882444E-2,-6.7261286E-2,-3.2319795E-2,-1.1561502E-2,1.0174166E-2,3.2262053E-2,5.2650757E-2,7.229699E-2,4.6318793E-3,1.14910774E-1,7.216685E-3,8.3355E-3,1.0920921E-2,1.3400491E-2,-6.8790503E-3,-1.5445953E-3,-5.4783276E-3,-4.463917E-3,-3.7326252E-3,-2.8903403E-3,-1.993997E-3,-1.3336064E-3,-5.2897807E-4,-7.6515544E-3,2.005814E-4,8.1178464E-4,1.2063527E-3,1.8412609E-3,4.200306E-4,2.6295024E-3,-8.911852E-4,3.65345E-3,1.4682165E-3,5.7353424E-3],"categories":[],"categories_nodes":[],"categories_segments":[],"categories_sizes":[],"default_left":[0,0,0,0,0,0,0,0,0,0,0,0,0,0,0,0,0,0,0,0,0,0,0,0,0,0,0,0,0,0,0,0,0,0,0,0,0,0,0,0,0,0,0,0,0,0,0,0,0,0,0],"id":12,"left_children":[1,3,5,7,9,11,13,15,17,19,21,23,25,27,29,-1,31,33,35,37,39,41,43,45,47,-1,49,-1,-1,-1,-1,-1,-1,-1,-1,-1,-1,-1,-1,-1,-1,-1,-1,-1,-1,-1,-1,-1,-1,-1,-1],"loss_changes":[1.9023544E1,5.687753E0,2.0547485E0,9.581528E-1,6.114488E-1,1.7516613E-1,6.626167E-1,8.36463E-2,1.7664862E-1,7.579899E-2,7.881226E-2,1.5199304E-2,5.4501295E-3,1.0500908E-2,2.478695E-2,0E0,3.856659E-3,2.7349234E-2,2.241373E-2,1.540336E-2,4.077667E-2,1.4861036E-2,9.70152E-3,1.1446476E-3,1.12014115E-2,0E0,1.3948679E-3,0E0,0E0,0E0,0E0,0E0,0E0,0E0,0E0,0E0,0E0,0E0,0E0,0E0,0E0,0E0,0E0,0E0,0E0,0E0,0E0,0E0,0E0,0E0,0E0],"parents":[2147483647,0,0,1,1,2,2,3,3,4,4,5,5,6,6,7,7,8,8,9,9,10,10,11,11,12,12,13,13,14,14,16,16,17,17,18,18,19,19,20,20,21,21,22,22,23,23,24,24,26,26],"right_children":[2,4,6,8,10,12,14,16,18,20,22,24,26,28,30,-1,32,34,36,38,40,42,44,46,48,-1,50,-1,-1,-1,-1,-1,-1,-1,-1,-1,-1,-1,-1,-1,-1,-1,-1,-1,-1,-1,-1,-1,-1,-1,-1],"split_conditions":[5.180882E-1,3.4015262E-1,6.742221E-1,2.0786999E-1,4.250855E-1,5.905162E-1,7.8689605E-1,1.3914901E-1,2.7923563E-1,3.962812E-1,4.691654E-1,5.4578114E-1,6.18415E-1,7.168753E-1,8.9081454E-1,-8.950487E-3,4.249467E-1,2.4581465E-1,3.0596304E-1,3.689313E-1,7.203654E-1,4.497439E-1,4.8563844E-1,4.3896416E-1,3.861871E-1,4.6318793E-3,4.4599935E-1,7.216685E-3,8.3355E-3,1.0920921E-2,1.3400491E-2,-6.8790503E-3,-1.5445953E-3,-5.4783276E-3,-4.463917E-3,-3.7326252E-3,-2.8903403E-3,-1.993997E-3,-1.3336064E-3,-5.2897807E-4,-7.6515544E-3,2.005814E-4,8.1178464E-4,1.2063527E-3,1.8412609E-3,4.200306E-4,2.6295024E-3,-8.911852E-4,3.65345E-3,1.4682165E-3,5.7353424E-3],"split_indices":[245,245,245,245,245,245,245,240,245,245,245,245,245,245,235,0,0,245,245,245,60,245,245,220,205,0,0,0,0,0,0,0,0,0,0,0,0,0,0,0,0,0,0,0,0,0,0,0,0,0,0],"split_type":[0,0,0,0,0,0,0,0,0,0,0,0,0,0,0,0,0,0,0,0,0,0,0,0,0,0,0,0,0,0,0,0,0,0,0,0,0,0,0,0,0,0,0,0,0,0,0,0,0,0,0],"sum_hessian":[3.131E3,2.374E3,7.57E2,9.95E2,1.379E3,3.49E2,4.08E2,2.6E2,7.35E2,7.11E2,6.68E2,1.99E2,1.5E2,2.74E2,1.34E2,9.3E1,1.67E2,3.62E2,3.73E2,3.84E2,3.27E2,3.93E2,2.75E2,1.15E2,8.4E1,5.8E1,9.2E1,1.42E2,1.32E2,7.3E1,6.1E1,1.66E2,1E0,1.53E2,2.09E2,1.95E2,1.78E2,1.55E2,2.29E2,3.26E2,1E0,1.98E2,1.95E2,1.06E2,1.69E2,1E0,1.14E2,1E0,8.3E1,1E0,9.1E1],"tree_param":{"num_deleted":"0","num_feature":"250","num_nodes":"51","size_leaf_vector":"1"}},{"base_weights":[4.491883E-4,-3.8993485E-2,1.399353E-1,-9.4399996E-2,2.5911615E-4,1.1292369E-1,2.2803022E-1,-1.3333945E-1,-7.153688E-2,-1.7953975E-2,2.4089461E-2,7.9060145E-2,1.443801E-1,9.781194E-3,1.2739649E-2,-1.6147478E-1,-1.1394257E-1,-8.009579E-2,-5.5214897E-2,-2.9696858E-2,-8.21618E-3,1.5318454E-2,3.7398875E-2,6.2219717E-2,9.256921E-2,6.460315E-3,7.555216E-3,-9.327425E-3,-7.5009703E-3,-6.1413054E-3,-5.326289E-3,-4.2695375E-3,-3.5821316E-3,-2.7666416E-3,2.4608327E-5,-1.7631574E-3,-1.1645614E-3,-3.7501357E-4,-7.4616065E-3,4.7472928E-4,9.5282355E-4,1.5181488E-3,2.1280742E-3,3.1519523E-3,-3.4724412E-4,4.0525934E-3,4.9529006E-3],"categories":[],"categories_nodes":[],"categories_segments":[],"categories_sizes":[],"default_left":[0,0,0,0,0,0,0,0,0,0,0,0,0,0,0,0,0,0,0,0,0,0,0,0,0,0,0,0,0,0,0,0,0,0,0,0,0,0,0,0,0,0,0,0,0,0,0],"id":13,"left_children":[1,3,5,7,9,11,13,15,17,19,21,23,25,-1,-1,27,29,31,33,35,37,39,41,43,45,-1,-1,-1,-1,-1,-1,-1,-1,-1,-1,-1,-1,-1,-1,-1,-1,-1,-1,-1,-1,-1,-1],"loss_changes":[1.7121262E1,5.27621E0,1.6066465E0,8.8608074E-1,6.17181E-1,5.4995966E-1,9.1231346E-2,1.8406916E-1,8.442569E-2,9.1921955E-2,7.1337074E-2,5.2479982E-2,1.0422707E-2,0E0,0E0,1.2497425E-2,1.2218952E-3,1.3247967E-2,6.319225E-3,1.2414455E-2,4.0494014E-2,8.1321E-3,7.782519E-3,1.0684192E-2,2.871871E-3,0E0,0E0,0E0,0E0,0E0,0E0,0E0,0E0,0E0,0E0,0E0,0E0,0E0,0E0,0E0,0E0,0E0,0E0,0E0,0E0,0E0,0E0],"parents":[2147483647,0,0,1,1,2,2,3,3,4,4,5,5,6,6,7,7,8,8,9,9,10,10,11,11,12,12,15,15,16,16,17,17,18,18,19,19,20,20,21,21,22,22,23,23,24,24],"right_children":[2,4,6,8,10,12,14,16,18,20,22,24,26,-1,-1,28,30,32,34,36,38,40,42,44,46,-1,-1,-1,-1,-1,-1,-1,-1,-1,-1,-1,-1,-1,-1,-1,-1,-1,-1,-1,-1,-1,-1],"split_conditions":[5.302476E-1,3.4614685E-1,7.601685E-1,2.370588E-1,4.383313E-1,6.498914E-1,8.7297803E-1,1.6984221E-1,3.0260342E-1,3.962812E-1,4.8337647E-1,5.815491E-1,7.062391E-1,9.781194E-3,1.2739649E-2,9.758572E-2,2.0377634E-1,2.7923563E-1,6.8981767E-1,3.7516114E-1,7.366555E-1,4.5590144E-1,5.034736E-1,6.6710377E-1,6.082565E-1,6.460315E-3,7.555216E-3,-9.327425E-3,-7.5009703E-3,-6.1413054E-3,-5.326289E-3,-4.2695375E-3,-3.5821316E-3,-2.7666416E-3,2.4608327E-5,-1.7631574E-3,-1.1645614E-3,-3.7501357E-4,-7.4616065E-3,4.7472928E-4,9.5282355E-4,1.5181488E-3,2.1280742E-3,3.1519523E-3,-3.4724412E-4,4.0525934E-3,4.9529006E-3],"split_indices":[245,245,245,245,245,245,235,240,245,245,245,245,245,0,0,245,240,245,25,245,90,245,245,40,245,0,0,0,0,0,0,0,0,0,0,0,0,0,0,0,0,0,0,0,0,0,0],"split_type":[0,0,0,0,0,0,0,0,0,0,0,0,0,0,0,0,0,0,0,0,0,0,0,0,0,0,0,0,0,0,0,0,0,0,0,0,0,0,0,0,0,0,0,0,0,0,0],"sum_hessian":[3.11E3,2.425E3,6.85E2,1.005E3,1.42E3,5.26E2,1.59E2,3.7E2,6.35E2,8.05E2,6.15E2,2.55E2,2.71E2,8E1,7.9E1,1.48E2,2.22E2,4.14E2,2.21E2,3.64E2,4.41E2,3.72E2,2.43E2,1.16E2,1.39E2,1.02E2,1.69E2,3.7E1,1.11E2,8.3E1,1.39E2,2.32E2,1.82E2,2.19E2,2E0,1.86E2,1.78E2,4.4E2,1E0,1.51E2,2.21E2,1.11E2,1.32E2,1.14E2,2E0,6E1,7.9E1],"tree_param":{"num_deleted":"0","num_feature":"250","num_nodes":"47","size_leaf_vector":"1"}},{"base_weights":[7.6648535E-4,-3.94783E-2,1.2610075E-1,-9.390585E-2,-3.8240615E-3,7.5558424E-2,1.722515E-1,-1.4017166E-1,-7.652034E-2,-2.237708E-2,1.7636232E-2,5.394065E-2,9.4544515E-2,1.4307342E-1,2.2364114E-1,-8.303075E-3,-1.2589976E-1,-9.4144784E-2,-6.6595435E-2,-3.5136893E-2,-1.3959617E-2,9.5662E-3,3.0740134E-2,-8.229594E-3,5.4715917E-2,7.9441875E-2,5.1578083E-3,6.672414E-3,7.763852E-3,1.0272736E-2,1.2965625E-2,-6.5501058E-3,-5.4400275E-3,-4.987762E-3,-4.2666113E-3,-3.61483E-3,-2.8988123E-3,-2.2185897E-3,-1.5161565E-3,-6.6321605E-4,-7.2763744E-3,1.3541707E-4,7.315619E-4,1.3055649E-3,1.8453884E-3,3.567749E-4,-9.6966594E-4,2.3963174E-3,3.2840073E-3,1.3697186E-3,3.993966E-3],"categories":[],"categories_nodes":[],"categories_segments":[],"categories_sizes":[],"default_left":[0,0,0,0,0,0,0,0,0,0,0,0,0,0,0,0,0,0,0,0,0,0,0,0,0,0,0,0,0,0,0,0,0,0,0,0,0,0,0,0,0,0,0,0,0,0,0,0,0,0,0],"id":14,"left_children":[1,3,5,7,9,11,13,15,17,19,21,23,25,27,29,-1,31,33,35,37,39,41,43,45,47,49,-1,-1,-1,-1,-1,-1,-1,-1,-1,-1,-1,-1,-1,-1,-1,-1,-1,-1,-1,-1,-1,-1,-1,-1,-1],"loss_changes":[1.5792855E1,4.598798E0,1.7620659E0,7.4375916E-1,5.7094824E-1,1.4470983E-1,5.632849E-1,7.743454E-2,1.1337614E-1,8.210415E-2,7.0028946E-2,8.788645E-3,1.897204E-2,8.54826E-3,3.5090446E-2,0E0,2.3770332E-3,4.0175915E-3,1.8238664E-2,1.2030542E-2,3.5136282E-2,1.4557332E-2,6.2508583E-3,6.6295924E-4,9.414315E-3,1.83177E-3,0E0,0E0,0E0,0E0,0E0,0E0,0E0,0E0,0E0,0E0,0E0,0E0,0E0,0E0,0E0,0E0,0E0,0E0,0E0,0E0,0E0,0E0,0E0,0E0,0E0],"parents":[2147483647,0,0,1,1,2,2,3,3,4,4,5,5,6,6,7,7,8,8,9,9,10,10,11,11,12,12,13,13,14,14,16,16,17,17,18,18,19,19,20,20,21,21,22,22,23,23,24,24,25,25],"right_children":[2,4,6,8,10,12,14,16,18,20,22,24,26,28,30,-1,32,34,36,38,40,42,44,46,48,50,-1,-1,-1,-1,-1,-1,-1,-1,-1,-1,-1,-1,-1,-1,-1,-1,-1,-1,-1,-1,-1,-1,-1,-1,-1],"split_conditions":[5.180882E-1,3.2862657E-1,6.834856E-1,2.0786999E-1,4.250855E-1,5.815491E-1,7.8689605E-1,1.3076474E-1,2.6649535E-1,3.8214964E-1,4.737426E-1,4.3896416E-1,6.124993E-1,7.275697E-1,9.217971E-1,-8.303075E-3,1.930495E-1,2.4274735E-1,2.9559094E-1,3.5101807E-1,7.203654E-1,4.4841596E-1,4.9841294E-1,3.5913637E-1,5.4578114E-1,3.5913637E-1,5.1578083E-3,6.672414E-3,7.763852E-3,1.0272736E-2,1.2965625E-2,-6.5501058E-3,-5.4400275E-3,-4.987762E-3,-4.2666113E-3,-3.61483E-3,-2.8988123E-3,-2.2185897E-3,-1.5161565E-3,-6.6321605E-4,-7.2763744E-3,1.3541707E-4,7.315619E-4,1.3055649E-3,1.8453884E-3,3.567749E-4,-9.6966594E-4,2.3963174E-3,3.2840073E-3,1.3697186E-3,3.993966E-3],"split_indices":[245,245,240,245,245,240,245,245,245,245,245,220,245,245,245,0,245,245,245,245,70,245,240,0,245,5,0,0,0,0,0,0,0,0,0,0,0,0,0,0,0,0,0,0,0,0,0,0,0,0,0],"split_type":[0,0,0,0,0,0,0,0,0,0,0,0,0,0,0,0,0,0,0,0,0,0,0,0,0,0,0,0,0,0,0,0,0,0,0,0,0,0,0,0,0,0,0,0,0,0,0,0,0,0,0],"sum_hessian":[3.129E3,2.369E3,7.6E2,9.37E2,1.432E3,3.64E2,3.96E2,2.54E2,6.83E2,7.68E2,6.64E2,1.72E2,1.92E2,2.55E2,1.41E2,8.4E1,1.7E2,2.43E2,4.4E2,3.04E2,4.64E2,4.12E2,2.52E2,2E0,1.7E2,7.7E1,1.15E2,1.61E2,9.4E1,1.02E2,3.9E1,1.19E2,5.1E1,1.31E2,1.12E2,2.46E2,1.94E2,9.6E1,2.08E2,4.63E2,1E0,1.78E2,2.34E2,1.52E2,1E2,1E0,1E0,1.12E2,5.8E1,2E0,7.5E1],"tree_param":{"num_deleted":"0","num_feature":"250","num_nodes":"51","size_leaf_vector":"1"}},{"base_weights":[8.3010853E-4,-3.7264343E-2,1.1847069E-1,-9.136461E-2,-4.6901978E-3,6.741761E-2,1.6030233E-1,-1.4177516E-1,-7.618121E-2,-2.2355564E-2,1.6798185E-2,5.1306378E-2,8.584069E-2,1.3751355E-1,2.142792E-1,-9.306324E-3,-6.653421E-3,-9.4206944E-2,-6.626191E-2,-3.6619935E-2,-1.412103E-2,7.913881E-3,2.736254E-2,4.5127016E-2,6.211524E-2,-9.45594E-4,8.662506E-2,6.3522942E-3,7.631308E-3,9.632524E-3,1.1941426E-2,-4.8925625E-3,-4.1609146E-3,-3.6290223E-3,-2.918197E-3,-2.1536888E-3,-1.531465E-3,-6.747002E-4,-7.0957406E-3,1.7281476E-4,6.7146163E-4,1.0117749E-3,1.5409027E-3,2.261362E-3,6.6029065E-4,3.2036097E-3,-4.5619885E-4,3.7033784E-3,4.6892664E-3],"categories":[],"categories_nodes":[],"categories_segments":[],"categories_sizes":[],"default_left":[0,0,0,0,0,0,0,0,0,0,0,0,0,0,0,0,0,0,0,0,0,0,0,0,0,0,0,0,0,0,0,0,0,0,0,0,0,0,0,0,0,0,0,0,0,0,0,0,0],"id":15,"left_children":[1,3,5,7,9,11,13,15,17,19,21,23,25,27,29,-1,-1,31,33,35,37,39,41,43,45,-1,47,-1,-1,-1,-1,-1,-1,-1,-1,-1,-1,-1,-1,-1,-1,-1,-1,-1,-1,-1,-1,-1,-1],"loss_changes":[1.3923809E1,4.135618E0,1.6122761E0,6.6428566E-1,5.5686927E-1,9.770131E-2,4.8347187E-1,4.6882153E-2,1.1534333E-1,9.4038546E-2,6.191677E-2,9.62019E-3,1.4730811E-2,2.6199818E-2,1.8211365E-2,0E0,0E0,2.5186539E-3,1.8306255E-2,1.0134757E-2,3.3121906E-2,8.931348E-3,7.1149766E-3,1.0237545E-3,1.1760086E-2,0E0,7.8293085E-3,0E0,0E0,0E0,0E0,0E0,0E0,0E0,0E0,0E0,0E0,0E0,0E0,0E0,0E0,0E0,0E0,0E0,0E0,0E0,0E0,0E0,0E0],"parents":[2147483647,0,0,1,1,2,2,3,3,4,4,5,5,6,6,7,7,8,8,9,9,10,10,11,11,12,12,13,13,14,14,17,17,18,18,19,19,20,20,21,21,22,22,23,23,24,24,26,26],"right_children":[2,4,6,8,10,12,14,16,18,20,22,24,26,28,30,-1,-1,32,34,36,38,40,42,44,46,-1,48,-1,-1,-1,-1,-1,-1,-1,-1,-1,-1,-1,-1,-1,-1,-1,-1,-1,-1,-1,-1,-1,-1],"split_conditions":[5.180882E-1,3.2255727E-1,6.6710377E-1,1.930495E-1,4.250855E-1,5.815491E-1,8.1610364E-1,8.376215E-2,2.571817E-1,3.7516114E-1,4.6800655E-1,5.4578114E-1,4.3411627E-1,7.3226833E-1,9.057408E-1,-9.306324E-3,-6.653421E-3,2.370588E-1,2.88465E-1,3.5101807E-1,7.366555E-1,4.5108137E-1,4.821346E-1,5.905162E-1,6.6710377E-1,-9.45594E-4,6.082565E-1,6.3522942E-3,7.631308E-3,9.632524E-3,1.1941426E-2,-4.8925625E-3,-4.1609146E-3,-3.6290223E-3,-2.918197E-3,-2.1536888E-3,-1.531465E-3,-6.747002E-4,-7.0957406E-3,1.7281476E-4,6.7146163E-4,1.0117749E-3,1.5409027E-3,2.261362E-3,6.6029065E-4,3.2036097E-3,-4.5619885E-4,3.7033784E-3,4.6892664E-3],"split_indices":[245,245,245,245,245,245,245,245,245,245,245,245,165,245,245,0,0,245,245,245,125,245,245,200,40,0,245,0,0,0,0,0,0,0,0,0,0,0,0,0,0,0,0,0,0,0,0,0,0],"split_type":[0,0,0,0,0,0,0,0,0,0,0,0,0,0,0,0,0,0,0,0,0,0,0,0,0,0,0,0,0,0,0,0,0,0,0,0,0,0,0,0,0,0,0,0,0,0,0,0,0],"sum_hessian":[3.105E3,2.346E3,7.59E2,8.81E2,1.465E3,3.43E2,4.16E2,2.02E2,6.79E2,8.04E2,6.61E2,1.85E2,1.58E2,2.95E2,1.21E2,2.6E1,1.76E2,2.38E2,4.41E2,2.93E2,5.11E2,3.6E2,3.01E2,1.21E2,6.4E1,1E0,1.57E2,1.91E2,1.04E2,7.3E1,4.8E1,1.62E2,7.6E1,2.26E2,2.15E2,1.32E2,1.61E2,5.1E2,1E0,2.02E2,1.58E2,1.06E2,1.95E2,1.19E2,2E0,6.2E1,2E0,6.6E1,9.1E1],"tree_param":{"num_deleted":"0","num_feature":"250","num_nodes":"49","size_leaf_vector":"1"}},{"base_weights":[3.897804E-4,-3.5307154E-2,1.1621028E-1,-8.302644E-2,-1.3967447E-3,7.596514E-2,1.6013739E-1,-1.2999693E-1,-6.8109885E-2,-1.693226E-2,1.908772E-2,5.7783563E-2,1.0022444E-1,1.3458022E-1,2.041549E-1,-1.500031E-1,-5.799912E-3,-8.538675E-2,-5.762899E-2,-2.646501E-2,-7.260464E-3,1.2992483E-2,3.0685408E-2,4.401496E-2,6.57875E-2,4.27188E-3,1.0821966E-1,6.2722494E-3,7.387593E-3,9.367797E-3,1.1818194E-2,-7.5094886E-3,-9.3688024E-4,-4.6263635E-3,-3.8603381E-3,-3.1972618E-3,-2.4431478E-3,-1.6579241E-3,-1.0942023E-3,-3.263541E-4,-6.9195908E-3,3.034701E-4,8.046222E-4,1.5556507E-3,-8.607485E-5,1.3518803E-3,2.2543482E-3,3.3045206E-3,-1.0035813E-3,1.8700908E-3,5.4249135E-3],"categories":[],"categories_nodes":[],"categories_segments":[],"categories_sizes":[],"default_left":[0,0,0,0,0,0,0,0,0,0,0,0,0,0,0,0,0,0,0,0,0,0,0,0,0,0,0,0,0,0,0,0,0,0,0,0,0,0,0,0,0,0,0,0,0,0,0,0,0,0,0],"id":16,"left_children":[1,3,5,7,9,11,13,15,17,19,21,23,25,27,29,31,-1,33,35,37,39,41,43,45,47,-1,49,-1,-1,-1,-1,-1,-1,-1,-1,-1,-1,-1,-1,-1,-1,-1,-1,-1,-1,-1,-1,-1,-1,-1,-1],"loss_changes":[1.2915949E1,3.864099E0,1.2889748E0,6.8617916E-1,4.4489995E-1,1.6446257E-1,3.6738682E-1,4.523039E-2,1.317923E-1,7.310593E-2,4.222776E-2,2.167964E-2,9.286165E-3,7.587433E-3,2.1672726E-2,1.2031078E-2,0E0,9.594917E-3,2.3788333E-2,1.15299225E-2,3.50393E-2,8.678757E-3,4.3984503E-3,7.4759126E-4,1.0546088E-2,0E0,3.3299923E-3,0E0,0E0,0E0,0E0,0E0,0E0,0E0,0E0,0E0,0E0,0E0,0E0,0E0,0E0,0E0,0E0,0E0,0E0,0E0,0E0,0E0,0E0,0E0,0E0],"parents":[2147483647,0,0,1,1,2,2,3,3,4,4,5,5,6,6,7,7,8,8,9,9,10,10,11,11,12,12,13,13,14,14,15,15,17,17,18,18,19,19,20,20,21,21,22,22,23,23,24,24,26,26],"right_children":[2,4,6,8,10,12,14,16,18,20,22,24,26,28,30,32,-1,34,36,38,40,42,44,46,48,-1,50,-1,-1,-1,-1,-1,-1,-1,-1,-1,-1,-1,-1,-1,-1,-1,-1,-1,-1,-1,-1,-1,-1,-1,-1],"split_conditions":[5.228943E-1,3.4015262E-1,7.0330393E-1,2.0121329E-1,4.3537226E-1,6.124993E-1,8.1610364E-1,1.3076474E-1,2.6913628E-1,3.9738223E-1,4.8337647E-1,5.4578114E-1,6.498914E-1,7.425538E-1,9.217971E-1,3.0260342E-1,-5.799912E-3,2.370588E-1,2.997371E-1,3.689313E-1,7.366555E-1,4.5282164E-1,6.2447053E-1,5.0393796E-1,7.168753E-1,4.27188E-3,5.584571E-1,6.2722494E-3,7.387593E-3,9.367797E-3,1.1818194E-2,-7.5094886E-3,-9.3688024E-4,-4.6263635E-3,-3.8603381E-3,-3.1972618E-3,-2.4431478E-3,-1.6579241E-3,-1.0942023E-3,-3.263541E-4,-6.9195908E-3,3.034701E-4,8.046222E-4,1.5556507E-3,-8.607485E-5,1.3518803E-3,2.2543482E-3,3.3045206E-3,-1.0035813E-3,1.8700908E-3,5.4249135E-3],"split_indices":[245,245,245,245,245,245,245,245,245,245,245,245,245,245,245,0,0,245,245,245,85,245,70,230,35,0,165,0,0,0,0,0,0,0,0,0,0,0,0,0,0,0,0,0,0,0,0,0,0,0,0],"split_type":[0,0,0,0,0,0,0,0,0,0,0,0,0,0,0,0,0,0,0,0,0,0,0,0,0,0,0,0,0,0,0,0,0,0,0,0,0,0,0,0,0,0,0,0,0,0,0,0,0,0,0],"sum_hessian":[3.122E3,2.387E3,7.35E2,9.91E2,1.396E3,3.85E2,3.5E2,2.37E2,7.54E2,7.94E2,6.02E2,2.22E2,1.63E2,2.24E2,1.26E2,9E1,1.47E2,2.82E2,4.72E2,3.99E2,3.95E2,3.96E2,2.06E2,8.4E1,1.38E2,6.3E1,1E2,1.48E2,7.6E1,9.1E1,3.5E1,8.9E1,1E0,1.34E2,1.48E2,2.58E2,2.14E2,1.53E2,2.46E2,3.94E2,1E0,1.27E2,2.69E2,2.02E2,4E0,8E0,7.6E1,1.37E2,1E0,2E0,9.8E1],"tree_param":{"num_deleted":"0","num_feature":"250","num_nodes":"51","size_leaf_vector":"1"}},{"base_weights":[1.2116821E-3,-3.0081179E-2,1.19785696E-1,-7.678679E-2,1.7348365E-3,9.8367356E-2,1.8697986E-1,-1.1418099E-1,-6.0627926E-2,-1.46028595E-2,2.1113481E-2,6.9457956E-2,1.1839506E-1,8.054808E-3,1.03789875E-2,-1.3218173E-1,-4.856649E-3,-7.241251E-2,-5.088443E-2,-2.2646794E-2,-5.6478023E-3,1.3169061E-2,3.271883E-2,5.7533212E-2,7.694004E-2,5.2337437E-3,6.2299967E-3,-8.443892E-3,-6.2159784E-3,-4.002238E-3,-3.336575E-3,-2.8536823E-3,-2.2265336E-3,-1.4483292E-3,-9.65318E-4,-2.4535612E-4,-6.747814E-3,4.8827744E-4,9.3243236E-4,1.3503099E-3,1.9456021E-3,9.312061E-4,2.917045E-3,6.110844E-4,3.8413173E-3],"categories":[],"categories_nodes":[],"categories_segments":[],"categories_sizes":[],"default_left":[0,0,0,0,0,0,0,0,0,0,0,0,0,0,0,0,0,0,0,0,0,0,0,0,0,0,0,0,0,0,0,0,0,0,0,0,0,0,0,0,0,0,0,0,0],"id":17,"left_children":[1,3,5,7,9,11,13,15,17,19,21,23,25,-1,-1,27,-1,29,31,33,35,37,39,41,43,-1,-1,-1,-1,-1,-1,-1,-1,-1,-1,-1,-1,-1,-1,-1,-1,-1,-1,-1,-1],"loss_changes":[1.1550742E1,3.6601183E0,9.17079E-1,5.9611654E-1,4.644475E-1,2.783761E-1,5.12681E-2,7.5428724E-2,7.657671E-2,5.721107E-2,6.1433822E-2,1.3863862E-2,1.3535023E-2,0E0,0E0,1.57547E-2,0E0,7.992864E-3,1.2790024E-2,8.191869E-3,3.409219E-2,7.299736E-3,8.648902E-3,2.8237402E-3,2.457261E-3,0E0,0E0,0E0,0E0,0E0,0E0,0E0,0E0,0E0,0E0,0E0,0E0,0E0,0E0,0E0,0E0,0E0,0E0,0E0,0E0],"parents":[2147483647,0,0,1,1,2,2,3,3,4,4,5,5,6,6,7,7,8,8,9,9,10,10,11,11,12,12,15,15,17,17,18,18,19,19,20,20,21,21,22,22,23,23,24,24],"right_children":[2,4,6,8,10,12,14,16,18,20,22,24,26,-1,-1,28,-1,30,32,34,36,38,40,42,44,-1,-1,-1,-1,-1,-1,-1,-1,-1,-1,-1,-1,-1,-1,-1,-1,-1,-1,-1,-1],"split_conditions":[5.416866E-1,3.4912756E-1,7.665919E-1,2.2106957E-1,4.383313E-1,6.498914E-1,8.7297803E-1,1.630041E-1,2.8233168E-1,4.0070367E-1,4.8563844E-1,5.8606607E-1,7.062391E-1,8.054808E-3,1.03789875E-2,8.376215E-2,-4.856649E-3,2.5488064E-1,3.0596304E-1,3.7078035E-1,7.425538E-1,4.6605027E-1,5.1136655E-1,3E0,3.5913637E-1,5.2337437E-3,6.2299967E-3,-8.443892E-3,-6.2159784E-3,-4.002238E-3,-3.336575E-3,-2.8536823E-3,-2.2265336E-3,-1.4483292E-3,-9.65318E-4,-2.4535612E-4,-6.747814E-3,4.8827744E-4,9.3243236E-4,1.3503099E-3,1.9456021E-3,9.312061E-4,2.917045E-3,6.110844E-4,3.8413173E-3],"split_indices":[245,245,245,245,245,245,245,245,245,245,245,245,245,0,0,240,0,245,245,245,90,245,240,146,5,0,0,0,0,0,0,0,0,0,0,0,0,0,0,0,0,0,0,0,0],"split_type":[0,0,0,0,0,0,0,0,0,0,0,0,0,0,0,0,0,0,0,0,0,0,0,0,0,0,0,0,0,0,0,0,0,0,0,0,0,0,0,0,0,0,0,0,0],"sum_hessian":[3.111E3,2.462E3,6.49E2,9.97E2,1.465E3,4.94E2,1.55E2,2.99E2,6.98E2,7.95E2,6.7E2,2.04E2,2.9E2,7.7E1,7.8E1,1.39E2,1.6E2,3.13E2,3.85E2,4.18E2,3.77E2,3.99E2,2.71E2,8.2E1,1.22E2,1.08E2,1.82E2,1.8E1,1.21E2,1.16E2,1.97E2,1.8E2,2.05E2,1.35E2,2.83E2,3.76E2,1E0,2.52E2,1.47E2,1.49E2,1.22E2,3E0,7.9E1,1E0,1.21E2],"tree_param":{"num_deleted":"0","num_feature":"250","num_nodes":"45","size_leaf_vector":"1"}},{"base_weights":[6.240827E-4,-3.229699E-2,1.01139426E-1,-7.767701E-2,-4.0959558E-3,6.0032286E-2,1.3941033E-1,-1.20707944E-1,-6.498935E-2,-1.948769E-2,1.372612E-2,4.5612786E-2,7.873614E-2,1.1857615E-1,1.8668808E-1,-1.4356762E-1,-1.11306265E-1,-8.043733E-2,-5.602581E-2,-2.9554293E-2,-1.1500536E-2,6.956988E-3,2.3929633E-2,3.908345E-2,5.5770673E-2,6.919666E-2,8.708276E-2,5.5055525E-3,6.5053776E-3,8.507653E-3,1.0808963E-2,-8.392427E-3,-6.361707E-3,-5.5533634E-3,-7.593129E-4,-4.217804E-3,-3.612359E-3,-3.0720457E-3,-2.4706812E-3,-1.7818721E-3,-1.1534326E-3,-5.420526E-4,-6.580302E-3,1.8679151E-4,5.906425E-4,9.659381E-4,1.4581315E-3,-1.0995126E-3,1.971828E-3,2.8298674E-3,-1.0510824E-3,5.9591484E-4,3.4639714E-3,4.3630553E-3,1.8303302E-3],"categories":[],"categories_nodes":[],"categories_segments":[],"categories_sizes":[],"default_left":[0,0,0,0,0,0,0,0,0,0,0,0,0,0,0,0,0,0,0,0,0,0,0,0,0,0,0,0,0,0,0,0,0,0,0,0,0,0,0,0,0,0,0,0,0,0,0,0,0,0,0,0,0,0,0],"id":18,"left_children":[1,3,5,7,9,11,13,15,17,19,21,23,25,27,29,31,33,35,37,39,41,43,45,47,49,51,53,-1,-1,-1,-1,-1,-1,-1,-1,-1,-1,-1,-1,-1,-1,-1,-1,-1,-1,-1,-1,-1,-1,-1,-1,-1,-1,-1,-1],"loss_changes":[1.0327574E1,3.0084057E0,1.2030005E0,4.840665E-1,3.9829513E-1,9.70068E-2,3.698902E-1,2.7863503E-2,9.214473E-2,6.2294424E-2,4.6316907E-2,1.1947364E-2,6.79338E-3,1.21741295E-2,1.9767761E-2,3.5333633E-4,6.091833E-3,2.6255846E-3,1.3222933E-2,1.2944609E-2,2.9314473E-2,6.361887E-3,5.950749E-3,6.023124E-3,8.84968E-3,1.7800331E-3,3.260374E-5,0E0,0E0,0E0,0E0,0E0,0E0,0E0,0E0,0E0,0E0,0E0,0E0,0E0,0E0,0E0,0E0,0E0,0E0,0E0,0E0,0E0,0E0,0E0,0E0,0E0,0E0,0E0,0E0],"parents":[2147483647,0,0,1,1,2,2,3,3,4,4,5,5,6,6,7,7,8,8,9,9,10,10,11,11,12,12,13,13,14,14,15,15,16,16,17,17,18,18,19,19,20,20,21,21,22,22,23,23,24,24,25,25,26,26],"right_children":[2,4,6,8,10,12,14,16,18,20,22,24,26,28,30,32,34,36,38,40,42,44,46,48,50,52,54,-1,-1,-1,-1,-1,-1,-1,-1,-1,-1,-1,-1,-1,-1,-1,-1,-1,-1,-1,-1,-1,-1,-1,-1,-1,-1,-1,-1],"split_conditions":[5.141015E-1,3.2495713E-1,6.834856E-1,1.930495E-1,4.2352068E-1,5.905162E-1,8.1610364E-1,1.15638815E-1,2.6111948E-1,3.8214964E-1,4.7098243E-1,5.4591113E-1,6.2447053E-1,7.3226833E-1,9.217971E-1,2E0,3.2255727E-1,2.3292527E-1,2.897144E-1,3.5706583E-1,7.366555E-1,4.5409054E-1,4.921826E-1,3.8057306E-1,7.168753E-1,3.5913637E-1,7.601685E-1,5.5055525E-3,6.5053776E-3,8.507653E-3,1.0808963E-2,-8.392427E-3,-6.361707E-3,-5.5533634E-3,-7.593129E-4,-4.217804E-3,-3.612359E-3,-3.0720457E-3,-2.4706812E-3,-1.7818721E-3,-1.1534326E-3,-5.420526E-4,-6.580302E-3,1.8679151E-4,5.906425E-4,9.659381E-4,1.4581315E-3,-1.0995126E-3,1.971828E-3,2.8298674E-3,-1.0510824E-3,5.9591484E-4,3.4639714E-3,4.3630553E-3,1.8303302E-3],"split_indices":[245,245,240,245,245,245,230,240,245,245,245,240,245,245,240,86,0,245,245,245,70,245,240,220,15,5,5,0,0,0,0,0,0,0,0,0,0,0,0,0,0,0,0,0,0,0,0,0,0,0,0,0,0,0,0],"split_type":[0,0,0,0,0,0,0,0,0,0,0,0,0,0,0,0,0,0,0,0,0,0,0,0,0,0,0,0,0,0,0,0,0,0,0,0,0,0,0,0,0,0,0,0,0,0,0,0,0,0,0,0,0,0,0],"sum_hessian":[3.119E3,2.35E3,7.69E2,9E2,1.45E3,3.72E2,3.97E2,2.03E2,6.97E2,7.78E2,6.72E2,2.12E2,1.6E2,2.78E2,1.19E2,5.5E1,1.48E2,2.53E2,4.44E2,3.43E2,4.35E2,4.05E2,2.67E2,1.32E2,8E1,7.9E1,8.1E1,1.78E2,1E2,8.4E1,3.5E1,1.7E1,3.8E1,1.47E2,1E0,1.53E2,1E2,2.25E2,2.19E2,1.69E2,1.74E2,4.34E2,1E0,2.47E2,1.58E2,1.49E2,1.18E2,1E0,1.31E2,7.9E1,1E0,1E0,7.8E1,7.9E1,2E0],"tree_param":{"num_deleted":"0","num_feature":"250","num_nodes":"55","size_leaf_vector":"1"}},{"base_weights":[4.0802764E-4,-2.7756099E-2,1.083552E-1,-7.282518E-2,4.3792184E-4,8.736613E-2,1.6586989E-1,-1.1232151E-1,-6.059695E-2,-1.8661546E-2,1.5450579E-2,6.131647E-2,1.0636471E-1,1.4083292E-1,9.288102E-3,-6.746557E-3,-5.131667E-3,-7.246815E-2,-4.9750708E-2,-2.6475608E-2,-1.2321606E-2,8.149628E-3,2.8307978E-2,5.186589E-2,7.131538E-2,9.403282E-2,5.564539E-3,7.0559233E-3,2.9639192E-3,-3.9170934E-3,-3.2129493E-3,-2.6313614E-3,-2.03807E-3,-1.5902091E-3,-1.1104577E-3,-6.285525E-4,1.0777119E-3,1.5773307E-4,6.768387E-4,1.0337739E-3,1.6177436E-3,-1.0722171E-3,2.619632E-3,3.1728926E-4,3.5716796E-3,1.4905407E-3,4.722732E-3],"categories":[],"categories_nodes":[],"categories_segments":[],"categories_sizes":[],"default_left":[0,0,0,0,0,0,0,0,0,0,0,0,0,0,0,0,0,0,0,0,0,0,0,0,0,0,0,0,0,0,0,0,0,0,0,0,0,0,0,0,0,0,0,0,0,0,0],"id":19,"left_children":[1,3,5,7,9,11,13,15,17,19,21,23,25,27,-1,-1,-1,29,31,33,35,37,39,41,43,45,-1,-1,-1,-1,-1,-1,-1,-1,-1,-1,-1,-1,-1,-1,-1,-1,-1,-1,-1,-1,-1],"loss_changes":[9.403422E0,3.1170068E0,7.581034E-1,4.4911766E-1,4.3325633E-1,2.2657895E-1,6.390476E-2,3.2841206E-2,8.94866E-2,3.2618314E-2,7.918435E-2,1.5294731E-2,8.550644E-3,4.6610832E-5,0E0,0E0,0E0,1.1990905E-2,8.592963E-3,6.0615987E-3,4.521683E-3,1.4706507E-2,9.115934E-3,8.1884265E-3,3.3810139E-3,3.5569668E-3,0E0,0E0,0E0,0E0,0E0,0E0,0E0,0E0,0E0,0E0,0E0,0E0,0E0,0E0,0E0,0E0,0E0,0E0,0E0,0E0,0E0],"parents":[2147483647,0,0,1,1,2,2,3,3,4,4,5,5,6,6,7,7,8,8,9,9,10,10,11,11,12,12,13,13,17,17,18,18,19,19,20,20,21,21,22,22,23,23,24,24,25,25],"right_children":[2,4,6,8,10,12,14,16,18,20,22,24,26,28,-1,-1,-1,30,32,34,36,38,40,42,44,46,-1,-1,-1,-1,-1,-1,-1,-1,-1,-1,-1,-1,-1,-1,-1,-1,-1,-1,-1,-1,-1],"split_conditions":[5.416866E-1,3.3126754E-1,7.553014E-1,1.9746143E-1,4.1660056E-1,6.498914E-1,8.6044174E-1,1.15638815E-1,2.7358186E-1,3.83582E-1,4.8080462E-1,5.9627914E-1,7.0330393E-1,9.5326644E-1,9.288102E-3,-6.746557E-3,-5.131667E-3,2.4581465E-1,3.0844447E-1,3.5706583E-1,4.799061E-1,4.5108137E-1,4.983661E-1,3.8698515E-1,5.8606607E-1,5.701134E-1,5.564539E-3,7.0559233E-3,2.9639192E-3,-3.9170934E-3,-3.2129493E-3,-2.6313614E-3,-2.03807E-3,-1.5902091E-3,-1.1104577E-3,-6.285525E-4,1.0777119E-3,1.5773307E-4,6.768387E-4,1.0337739E-3,1.6177436E-3,-1.0722171E-3,2.619632E-3,3.1728926E-4,3.5716796E-3,1.4905407E-3,4.722732E-3],"split_indices":[245,245,245,245,245,245,245,245,245,245,245,245,245,20,0,0,0,245,245,245,225,245,245,215,240,160,0,0,0,0,0,0,0,0,0,0,0,0,0,0,0,0,0,0,0,0,0],"split_type":[0,0,0,0,0,0,0,0,0,0,0,0,0,0,0,0,0,0,0,0,0,0,0,0,0,0,0,0,0,0,0,0,0,0,0,0,0,0,0,0,0,0,0,0,0,0,0],"sum_hessian":[3.091E3,2.452E3,6.39E2,9.43E2,1.509E3,4.7E2,1.69E2,2.21E2,7.22E2,6.64E2,8.45E2,2E2,2.7E2,8.1E1,8.8E1,5.7E1,1.64E2,3.42E2,3.8E2,2.96E2,3.68E2,5.4E2,3.05E2,1.06E2,9.4E1,9.1E1,1.79E2,7.9E1,2E0,1.82E2,1.6E2,2.73E2,1.07E2,1.23E2,1.73E2,3.65E2,3E0,2.84E2,2.56E2,1.13E2,1.92E2,1E0,1.05E2,1E0,9.3E1,2E0,8.9E1],"tree_param":{"num_deleted":"0","num_feature":"250","num_nodes":"47","size_leaf_vector":"1"}},{"base_weights":[-2.0322778E-4,-2.8844213E-2,9.5678635E-2,-6.746609E-2,-4.4136663E-4,7.145379E-2,1.478688E-1,-1.0956165E-1,-5.6285612E-2,-1.45970285E-2,1.3982413E-2,5.1337E-2,9.350042E-2,6.1404905E-3,1.7630292E-1,-1.3146271E-1,-4.9499692E-3,-7.0087306E-2,-4.690165E-2,-2.14677E-2,-8.140403E-3,6.961174E-3,2.232312E-2,3.7810553E-2,5.9970208E-2,8.13409E-2,4.978456E-3,7.885431E-3,9.718157E-3,-6.61383E-3,-5.7298224E-4,-3.7112236E-3,-3.0308166E-3,-2.601523E-3,-1.9721845E-3,-1.0774647E-3,1.4286643E-3,-3.6980785E-4,-6.4208643E-3,1.4536432E-4,5.182484E-4,8.957406E-4,1.3729645E-3,1.8988942E-3,5.162792E-4,-1.0455995E-3,3.009974E-3,1.3135984E-3,4.0860665E-3],"categories":[],"categories_nodes":[],"categories_segments":[],"categories_sizes":[],"default_left":[0,0,0,0,0,0,0,0,0,0,0,0,0,0,0,0,0,0,0,0,0,0,0,0,0,0,0,0,0,0,0,0,0,0,0,0,0,0,0,0,0,0,0,0,0,0,0,0,0],"id":20,"left_children":[1,3,5,7,9,11,13,15,17,19,21,23,25,-1,27,29,-1,31,33,35,37,39,41,43,45,47,-1,-1,-1,-1,-1,-1,-1,-1,-1,-1,-1,-1,-1,-1,-1,-1,-1,-1,-1,-1,-1,-1,-1],"loss_changes":[8.584482E0,2.6403794E0,8.9846516E-1,4.7389507E-1,2.8360337E-1,2.138493E-1,1.3434124E-1,3.290391E-2,1.0136056E-1,3.0922547E-2,4.0135324E-2,2.809441E-2,1.1111736E-2,0E0,3.5619736E-3,1.1669636E-2,0E0,9.136319E-3,1.7017245E-2,4.6062917E-3,2.947812E-2,5.2284226E-3,6.667316E-3,8.4397197E-4,9.60207E-3,2.499938E-3,0E0,0E0,0E0,0E0,0E0,0E0,0E0,0E0,0E0,0E0,0E0,0E0,0E0,0E0,0E0,0E0,0E0,0E0,0E0,0E0,0E0,0E0,0E0],"parents":[2147483647,0,0,1,1,2,2,3,3,4,4,5,5,6,6,7,7,8,8,9,9,10,10,11,11,12,12,14,14,15,15,17,17,18,18,19,19,20,20,21,21,22,22,23,23,24,24,25,25],"right_children":[2,4,6,8,10,12,14,16,18,20,22,24,26,-1,28,30,-1,32,34,36,38,40,42,44,46,48,-1,-1,-1,-1,-1,-1,-1,-1,-1,-1,-1,-1,-1,-1,-1,-1,-1,-1,-1,-1,-1,-1,-1],"split_conditions":[5.228943E-1,3.4614685E-1,7.3226833E-1,1.930495E-1,4.250855E-1,6.334734E-1,8.4015566E-1,1.15638815E-1,2.6913628E-1,3.9432317E-1,4.691654E-1,5.614235E-1,6.8981767E-1,6.1404905E-3,9.217971E-1,3.0260342E-1,-4.9499692E-3,2.494915E-1,3.0260342E-1,7.425538E-1,7.203654E-1,4.4841596E-1,4.9608144E-1,5E0,3.8096932E-1,6.18415E-1,4.978456E-3,7.885431E-3,9.718157E-3,-6.61383E-3,-5.7298224E-4,-3.7112236E-3,-3.0308166E-3,-2.601523E-3,-1.9721845E-3,-1.0774647E-3,1.4286643E-3,-3.6980785E-4,-6.4208643E-3,1.4536432E-4,5.182484E-4,8.957406E-4,1.3729645E-3,1.8988942E-3,5.162792E-4,-1.0455995E-3,3.009974E-3,1.3135984E-3,4.0860665E-3],"split_indices":[245,245,245,245,245,245,235,245,245,245,245,245,245,0,245,0,0,245,245,50,70,245,240,2,210,240,0,0,0,0,0,0,0,0,0,0,0,0,0,0,0,0,0,0,0,0,0,0,0],"split_type":[0,0,0,0,0,0,0,0,0,0,0,0,0,0,0,0,0,0,0,0,0,0,0,0,0,0,0,0,0,0,0,0,0,0,0,0,0,0,0,0,0,0,0,0,0,0,0,0,0],"sum_hessian":[3.124E3,2.406E3,7.18E2,1.019E3,1.387E3,4.92E2,2.26E2,2.12E2,8.07E2,7E2,6.87E2,2.59E2,2.33E2,1.25E2,1.01E2,6.2E1,1.5E2,3.24E2,4.83E2,3.38E2,3.62E2,3.74E2,3.13E2,1.03E2,1.56E2,8.8E1,1.45E2,5.8E1,4.3E1,6.1E1,1E0,2.09E2,1.15E2,2.7E2,2.13E2,3.37E2,1E0,3.61E2,1E0,1.74E2,2E2,1.76E2,1.37E2,1.01E2,2E0,1E0,1.55E2,2E0,8.6E1],"tree_param":{"num_deleted":"0","num_feature":"250","num_nodes":"49","size_leaf_vector":"1"}},{"base_weights":[-5.401669E-4,-2.6685923E-2,9.197938E-2,-6.470748E-2,-7.5672637E-4,5.3608254E-2,1.1780857E-1,-9.542787E-2,-5.1729858E-2,-1.28721725E-2,1.585018E-2,4.154502E-2,6.6179246E-2,9.990958E-2,1.5622294E-1,-1.1163682E-1,-4.031766E-3,-6.2075708E-2,-4.4369373E-2,-2.066034E-2,-5.350683E-3,1.0227629E-2,2.4576696E-2,4.217242E-2,-1.1647429E-3,4.1773342E-4,6.655598E-2,4.5701344E-3,5.304506E-3,1.4424233E-1,9.279883E-3,-6.5916767E-3,-5.0758016E-3,-3.3055327E-3,-2.8121532E-3,-2.3580699E-3,-1.8094939E-3,-1.3742723E-3,-8.604331E-4,-2.3633431E-4,-6.2614684E-3,2.1069958E-3,4.8877427E-4,1.0380725E-3,1.3507324E-3,-5.437867E-4,2.135697E-3,2.6219035E-3,3.4407072E-3,7.270011E-3,3.7550377E-3],"categories":[],"categories_nodes":[],"categories_segments":[],"categories_sizes":[],"default_left":[0,0,0,0,0,0,0,0,0,0,0,0,0,0,0,0,0,0,0,0,0,0,0,0,0,0,0,0,0,0,0,0,0,0,0,0,0,0,0,0,0,0,0,0,0,0,0,0,0,0,0],"id":21,"left_children":[1,3,5,7,9,11,13,15,17,19,21,23,25,27,29,31,-1,33,35,37,39,41,43,45,-1,-1,47,-1,-1,49,-1,-1,-1,-1,-1,-1,-1,-1,-1,-1,-1,-1,-1,-1,-1,-1,-1,-1,-1,-1,-1],"loss_changes":[7.399737E0,2.3512473E0,6.616826E-1,3.8058472E-1,2.8570697E-1,3.8650095E-2,2.6079798E-1,5.686927E-2,4.918027E-2,4.7982514E-2,2.9138744E-2,6.780669E-3,2.3126602E-3,5.2559376E-3,1.9361258E-2,1.245451E-2,0E0,3.1049252E-3,8.223772E-3,8.9404285E-3,2.9284634E-2,4.0985793E-3,1.6878545E-3,6.7870617E-3,0E0,0E0,1.2823343E-3,0E0,0E0,3.1659603E-3,0E0,0E0,0E0,0E0,0E0,0E0,0E0,0E0,0E0,0E0,0E0,0E0,0E0,0E0,0E0,0E0,0E0,0E0,0E0,0E0,0E0],"parents":[2147483647,0,0,1,1,2,2,3,3,4,4,5,5,6,6,7,7,8,8,9,9,10,10,11,11,12,12,13,13,14,14,15,15,17,17,18,18,19,19,20,20,21,21,22,22,23,23,26,26,29,29],"right_children":[2,4,6,8,10,12,14,16,18,20,22,24,26,28,30,32,-1,34,36,38,40,42,44,46,-1,-1,48,-1,-1,50,-1,-1,-1,-1,-1,-1,-1,-1,-1,-1,-1,-1,-1,-1,-1,-1,-1,-1,-1,-1,-1],"split_conditions":[5.271567E-1,3.366235E-1,6.6710377E-1,2.1618104E-1,4.383313E-1,5.905162E-1,7.8689605E-1,1.545378E-1,2.74884E-1,3.9738223E-1,4.821346E-1,7.0814764E-1,3.5913637E-1,7.168753E-1,9.217971E-1,4E0,-4.031766E-3,2.5488064E-1,3.1340078E-1,3.627544E-1,7.425538E-1,3.8774243E-1,5.003754E-1,4.876431E-1,-1.1647429E-3,4.1773342E-4,1.2E1,4.5701344E-3,5.304506E-3,1.4E1,9.279883E-3,-6.5916767E-3,-5.0758016E-3,-3.3055327E-3,-2.8121532E-3,-2.3580699E-3,-1.8094939E-3,-1.3742723E-3,-8.604331E-4,-2.3633431E-4,-6.2614684E-3,2.1069958E-3,4.8877427E-4,1.0380725E-3,1.3507324E-3,-5.437867E-4,2.135697E-3,2.6219035E-3,3.4407072E-3,7.270011E-3,3.7550377E-3],"split_indices":[245,245,245,245,245,245,245,245,245,245,245,5,5,245,245,121,0,245,245,245,90,235,245,240,0,0,231,0,0,206,0,0,0,0,0,0,0,0,0,0,0,0,0,0,0,0,0,0,0,0,0],"split_type":[0,0,0,0,0,0,0,0,0,0,0,0,0,0,0,0,0,0,0,0,0,0,0,0,0,0,0,0,0,0,0,0,0,0,0,0,0,0,0,0,0,0,0,0,0,0,0,0,0,0,0],"sum_hessian":[3.057E3,2.384E3,6.73E2,9.66E2,1.418E3,2.72E2,4.01E2,2.85E2,6.81E2,8.2E2,5.98E2,1.41E2,1.31E2,2.76E2,1.25E2,1.3E2,1.55E2,2.8E2,4.01E2,4.02E2,4.18E2,3.65E2,2.33E2,1.4E2,1E0,1E0,1.3E2,1.36E2,1.4E2,9.4E1,3.1E1,3.6E1,9.4E1,1.47E2,1.33E2,2.84E2,1.17E2,1.27E2,2.75E2,4.17E2,1E0,3E0,3.62E2,1.01E2,1.32E2,2E0,1.38E2,2.5E1,1.05E2,9E1,4E0],"tree_param":{"num_deleted":"0","num_feature":"250","num_nodes":"51","size_leaf_vector":"1"}},{"base_weights":[-2.1985865E-5,-2.465918E-2,9.073072E-2,-6.246352E-2,-7.510921E-4,7.246243E-2,1.3740854E-1,-9.4573915E-2,-5.0951272E-2,-1.3183415E-2,1.55724E-2,5.2731548E-2,9.021442E-2,5.8839223E-3,7.94506E-3,-1.1407701E-1,-8.343027E-2,-6.513656E-2,-4.4727717E-2,-2.0298673E-2,-5.6870575E-3,1.10266395E-2,2.6938666E-2,4.3794867E-2,6.2177654E-2,3.634457E-3,4.5623877E-3,-7.0571536E-3,-5.1912526E-3,-4.36171E-3,-3.660739E-3,-3.2442342E-3,-5.616339E-4,-2.469545E-3,-1.8890025E-3,-1.2995026E-3,-8.3574775E-4,-2.5304744E-4,-6.1060297E-3,3.4666227E-4,7.25167E-4,2.0831628E-4,1.3750115E-3,2.2120655E-3,-1.1358288E-3,4.0736393E-4,3.1085177E-3],"categories":[],"categories_nodes":[],"categories_segments":[],"categories_sizes":[],"default_left":[0,0,0,0,0,0,0,0,0,0,0,0,0,0,0,0,0,0,0,0,0,0,0,0,0,0,0,0,0,0,0,0,0,0,0,0,0,0,0,0,0,0,0,0,0,0,0],"id":22,"left_children":[1,3,5,7,9,11,13,15,17,19,21,23,25,-1,-1,27,29,31,33,35,37,39,41,43,45,-1,-1,-1,-1,-1,-1,-1,-1,-1,-1,-1,-1,-1,-1,-1,-1,-1,-1,-1,-1,-1,-1],"loss_changes":[6.8172364E0,2.167336E0,5.45166E-1,3.3859825E-1,2.985255E-1,1.598661E-1,5.8822393E-2,4.3512344E-2,5.764854E-2,4.442221E-2,3.2564E-2,1.6270757E-2,2.9468536E-4,0E0,0E0,8.110523E-3,3.3855438E-4,1.5602112E-3,1.4180124E-2,8.273751E-3,2.7626209E-2,6.498862E-3,2.9949546E-3,7.040262E-3,1.9798279E-3,0E0,0E0,0E0,0E0,0E0,0E0,0E0,0E0,0E0,0E0,0E0,0E0,0E0,0E0,0E0,0E0,0E0,0E0,0E0,0E0,0E0,0E0],"parents":[2147483647,0,0,1,1,2,2,3,3,4,4,5,5,6,6,7,7,8,8,9,9,10,10,11,11,12,12,15,15,16,16,17,17,18,18,19,19,20,20,21,21,22,22,23,23,24,24],"right_children":[2,4,6,8,10,12,14,16,18,20,22,24,26,-1,-1,28,30,32,34,36,38,40,42,44,46,-1,-1,-1,-1,-1,-1,-1,-1,-1,-1,-1,-1,-1,-1,-1,-1,-1,-1,-1,-1,-1,-1],"split_conditions":[5.3748184E-1,3.3126754E-1,7.4905884E-1,2.0377634E-1,4.3537226E-1,6.577977E-1,8.6044174E-1,1.3076474E-1,2.6111948E-1,3.9738223E-1,4.9608144E-1,5.9627914E-1,6.124993E-1,5.8839223E-3,7.94506E-3,2E0,1.876892E-1,3.107516E-1,2.9559094E-1,3.627544E-1,7.366555E-1,4.621309E-1,4.5424786E-1,7.168753E-1,3.5913637E-1,3.634457E-3,4.5623877E-3,-7.0571536E-3,-5.1912526E-3,-4.36171E-3,-3.660739E-3,-3.2442342E-3,-5.616339E-4,-2.469545E-3,-1.8890025E-3,-1.2995026E-3,-8.3574775E-4,-2.5304744E-4,-6.1060297E-3,3.4666227E-4,7.25167E-4,2.0831628E-4,1.3750115E-3,2.2120655E-3,-1.1358288E-3,4.0736393E-4,3.1085177E-3],"split_indices":[245,240,245,245,245,245,245,245,245,245,240,245,100,0,0,81,245,220,245,245,90,245,230,15,5,0,0,0,0,0,0,0,0,0,0,0,0,0,0,0,0,0,0,0,0,0,0],"split_type":[0,0,0,0,0,0,0,0,0,0,0,0,0,0,0,0,0,0,0,0,0,0,0,0,0,0,0,0,0,0,0,0,0,0,0,0,0,0,0,0,0,0,0,0,0,0,0],"sum_hessian":[3.047E3,2.397E3,6.5E2,9.28E2,1.469E3,4.69E2,1.81E2,2.43E2,6.85E2,8.34E2,6.35E2,2.24E2,2.45E2,1.02E2,7.9E1,8.5E1,1.58E2,2.06E2,4.79E2,4.27E2,4.07E2,4.55E2,1.8E2,1.18E2,1.06E2,2.6E1,2.19E2,1.8E1,6.7E1,1.03E2,5.5E1,2.05E2,1E0,2.7E2,2.09E2,1.56E2,2.71E2,4.06E2,1E0,2.15E2,2.4E2,6E0,1.74E2,1.17E2,1E0,1E0,1.05E2],"tree_param":{"num_deleted":"0","num_feature":"250","num_nodes":"47","size_leaf_vector":"1"}},{"base_weights":[7.885891E-4,-2.2306113E-2,8.799838E-2,-5.720314E-2,1.6874382E-3,7.169632E-2,1.3982646E-1,-8.878973E-2,-4.58229E-2,-1.0415929E-2,1.5425839E-2,4.9580783E-2,8.702961E-2,1.2753735E-1,8.522908E-3,-1.1131763E-1,-8.004222E-2,-5.4515023E-2,-3.6517188E-2,-1.4974401E-2,-1.6882573E-3,9.37426E-3,2.4358565E-2,4.363241E-2,6.0429327E-2,7.599117E-2,4.5633195E-3,6.5495796E-3,4.796565E-3,-6.7712367E-3,-4.9060844E-3,-4.355061E-3,-3.5602532E-3,-3.0682096E-3,-2.490759E-3,-2.0240438E-3,-1.5651204E-3,-9.1417634E-4,-5.371824E-4,-3.9197956E-5,-5.9544495E-3,3.467004E-4,7.2150206E-4,1.0156004E-3,1.4532639E-3,2.1987772E-3,-1.1076322E-3,3.0212302E-3,7.772627E-4,1.1049007E-3,3.7895415E-3],"categories":[],"categories_nodes":[],"categories_segments":[],"categories_sizes":[],"default_left":[0,0,0,0,0,0,0,0,0,0,0,0,0,0,0,0,0,0,0,0,0,0,0,0,0,0,0,0,0,0,0,0,0,0,0,0,0,0,0,0,0,0,0,0,0,0,0,0,0,0,0],"id":23,"left_children":[1,3,5,7,9,11,13,15,17,19,21,23,25,27,-1,29,31,33,35,37,39,41,43,45,47,49,-1,-1,-1,-1,-1,-1,-1,-1,-1,-1,-1,-1,-1,-1,-1,-1,-1,-1,-1,-1,-1,-1,-1,-1,-1],"loss_changes":[6.2335396E0,2.0489783E0,5.374732E-1,3.54316E-1,2.414343E-1,1.6354156E-1,3.8356066E-2,4.291749E-2,5.7460785E-2,3.0688606E-2,3.6530495E-2,1.0592282E-2,8.695364E-3,2.832055E-3,0E0,8.772731E-3,6.054044E-3,8.869171E-3,6.3120723E-3,7.0435405E-3,2.817345E-2,4.918255E-3,4.6543777E-3,6.850451E-3,3.7005544E-4,1.1265278E-5,0E0,0E0,0E0,0E0,0E0,0E0,0E0,0E0,0E0,0E0,0E0,0E0,0E0,0E0,0E0,0E0,0E0,0E0,0E0,0E0,0E0,0E0,0E0,0E0,0E0],"parents":[2147483647,0,0,1,1,2,2,3,3,4,4,5,5,6,6,7,7,8,8,9,9,10,10,11,11,12,12,13,13,15,15,16,16,17,17,18,18,19,19,20,20,21,21,22,22,23,23,24,24,25,25],"right_children":[2,4,6,8,10,12,14,16,18,20,22,24,26,28,-1,30,32,34,36,38,40,42,44,46,48,50,-1,-1,-1,-1,-1,-1,-1,-1,-1,-1,-1,-1,-1,-1,-1,-1,-1,-1,-1,-1,-1,-1,-1,-1,-1],"split_conditions":[5.416866E-1,3.4912756E-1,7.665919E-1,2.1120419E-1,4.3732926E-1,6.498914E-1,9.217971E-1,1.2283551E-1,2.8513286E-1,4.0767246E-1,4.8563844E-1,6.082565E-1,7.0330393E-1,1.4E1,8.522908E-3,2E0,1.7590678E-1,2.494915E-1,3.1340078E-1,3.8934812E-1,7.366555E-1,4.691654E-1,5.1136655E-1,7.239439E-1,7.239439E-1,4.7124678E-1,4.5633195E-3,6.5495796E-3,4.796565E-3,-6.7712367E-3,-4.9060844E-3,-4.355061E-3,-3.5602532E-3,-3.0682096E-3,-2.490759E-3,-2.0240438E-3,-1.5651204E-3,-9.1417634E-4,-5.371824E-4,-3.9197956E-5,-5.9544495E-3,3.467004E-4,7.2150206E-4,1.0156004E-3,1.4532639E-3,2.1987772E-3,-1.1076322E-3,3.0212302E-3,7.772627E-4,1.1049007E-3,3.7895415E-3],"split_indices":[245,245,245,245,245,245,240,235,245,245,245,245,245,206,0,86,240,245,245,245,85,245,240,25,40,65,0,0,0,0,0,0,0,0,0,0,0,0,0,0,0,0,0,0,0,0,0,0,0,0,0],"split_type":[0,0,0,0,0,0,0,0,0,0,0,0,0,0,0,0,0,0,0,0,0,0,0,0,0,0,0,0,0,0,0,0,0,0,0,0,0,0,0,0,0,0,0,0,0,0,0,0,0,0,0],"sum_hessian":[3.093E3,2.446E3,6.47E2,9.96E2,1.45E3,4.94E2,1.53E2,2.62E2,7.34E2,7.71E2,6.79E2,2.04E2,2.9E2,1.14E2,3.9E1,7E1,1.92E2,3.77E2,3.57E2,5.06E2,2.65E2,4.06E2,2.73E2,1.35E2,6.9E1,9.4E1,1.96E2,9.7E1,1.7E1,2E1,5E1,9.5E1,9.7E1,1.36E2,2.41E2,1.89E2,1.68E2,2.75E2,2.31E2,2.64E2,1E0,2.79E2,1.27E2,1.55E2,1.18E2,1.34E2,1E0,6.8E1,1E0,1E0,9.3E1],"tree_param":{"num_deleted":"0","num_feature":"250","num_nodes":"51","size_leaf_vector":"1"}},{"base_weights":[9.0748124E-4,-2.2430563E-2,8.12077E-2,-5.5635218E-2,-6.6590175E-4,6.347093E-2,1.2723386E-1,-8.826206E-2,-4.615034E-2,-1.294907E-2,1.2726873E-2,4.5343474E-2,8.0318294E-2,5.373468E-3,1.4799325E-1,-6.1791483E-3,-8.346666E-2,-5.9307113E-2,-4.030976E-2,-1.6424397E-2,-3.1186575E-3,8.155366E-3,2.223836E-2,3.1738516E-2,5.1091343E-2,6.477486E-2,4.112314E-3,6.701717E-3,8.538968E-3,-4.1624946E-3,-3.1211117E-4,-2.9533282E-3,-4.858595E-4,-2.1902197E-3,-1.6229809E-3,-1.114034E-3,-6.4998947E-4,-9.725931E-5,-5.8066323E-3,1.5560354E-4,5.561673E-4,1.1333158E-3,-4.129896E-4,1.5942894E-3,9.443377E-5,-1.1156424E-3,2.564535E-3,4.4947228E-4,3.2739579E-3],"categories":[],"categories_nodes":[],"categories_segments":[],"categories_sizes":[],"default_left":[0,0,0,0,0,0,0,0,0,0,0,0,0,0,0,0,0,0,0,0,0,0,0,0,0,0,0,0,0,0,0,0,0,0,0,0,0,0,0,0,0,0,0,0,0,0,0,0,0],"id":24,"left_children":[1,3,5,7,9,11,13,15,17,19,21,23,25,-1,27,-1,29,31,33,35,37,39,41,43,45,47,-1,-1,-1,-1,-1,-1,-1,-1,-1,-1,-1,-1,-1,-1,-1,-1,-1,-1,-1,-1,-1,-1,-1],"loss_changes":[5.833865E0,1.7430867E0,5.641899E-1,2.9146242E-1,2.4001412E-1,1.5150118E-1,6.0524225E-2,2.6754618E-2,5.462694E-2,2.5947496E-2,3.0168965E-2,1.7693758E-2,4.851818E-3,0E0,4.8826933E-3,0E0,4.9732924E-3,1.3944507E-3,1.3545752E-2,1.0969982E-2,2.6174359E-2,7.2006695E-3,4.2507052E-3,7.8350306E-4,8.2663E-3,2.0685494E-3,0E0,0E0,0E0,0E0,0E0,0E0,0E0,0E0,0E0,0E0,0E0,0E0,0E0,0E0,0E0,0E0,0E0,0E0,0E0,0E0,0E0,0E0,0E0],"parents":[2147483647,0,0,1,1,2,2,3,3,4,4,5,5,6,6,7,7,8,8,9,9,10,10,11,11,12,12,14,14,16,16,17,17,18,18,19,19,20,20,21,21,22,22,23,23,24,24,25,25],"right_children":[2,4,6,8,10,12,14,16,18,20,22,24,26,-1,28,-1,30,32,34,36,38,40,42,44,46,48,-1,-1,-1,-1,-1,-1,-1,-1,-1,-1,-1,-1,-1,-1,-1,-1,-1,-1,-1,-1,-1,-1,-1],"split_conditions":[5.302476E-1,3.366235E-1,7.4905884E-1,1.9746143E-1,4.275592E-1,6.415174E-1,8.6044174E-1,8.376215E-2,2.6111948E-1,4.0767246E-1,4.8563844E-1,5.614235E-1,5.9148157E-1,5.373468E-3,9.3575436E-1,-6.1791483E-3,3.2255727E-1,3.107516E-1,3.0260342E-1,3.7257245E-1,6.6710377E-1,4.5108137E-1,6.2447053E-1,6.415174E-1,3.861871E-1,4.4599935E-1,4.112314E-3,6.701717E-3,8.538968E-3,-4.1624946E-3,-3.1211117E-4,-2.9533282E-3,-4.858595E-4,-2.1902197E-3,-1.6229809E-3,-1.114034E-3,-6.4998947E-4,-9.725931E-5,-5.8066323E-3,1.5560354E-4,5.561673E-4,1.1333158E-3,-4.129896E-4,1.5942894E-3,9.443377E-5,-1.1156424E-3,2.564535E-3,4.4947228E-4,3.2739579E-3],"split_indices":[245,245,245,245,245,245,235,235,245,245,245,245,0,0,245,0,0,220,245,245,0,245,70,70,205,0,0,0,0,0,0,0,0,0,0,0,0,0,0,0,0,0,0,0,0,0,0,0,0],"split_type":[0,0,0,0,0,0,0,0,0,0,0,0,0,0,0,0,0,0,0,0,0,0,0,0,0,0,0,0,0,0,0,0,0,0,0,0,0,0,0,0,0,0,0,0,0,0,0,0,0],"sum_hessian":[3.111E3,2.411E3,7E2,9.54E2,1.457E3,5.07E2,1.93E2,2.13E2,7.41E2,7.6E2,6.97E2,2.46E2,2.61E2,1.04E2,8.9E1,2.2E1,1.91E2,2.25E2,5.16E2,5.61E2,1.99E2,4.72E2,2.25E2,7.5E1,1.71E2,4E1,2.21E2,6.2E1,2.7E1,1.9E2,1E0,2.24E2,1E0,3.41E2,1.75E2,1.98E2,3.63E2,1.98E2,1E0,1.79E2,2.93E2,2.21E2,4E0,7.4E1,1E0,1E0,1.7E2,1E0,3.9E1],"tree_param":{"num_deleted":"0","num_feature":"250","num_nodes":"49","size_leaf_vector":"1"}},{"base_weights":[-2.8259175E-5,-2.2335509E-2,7.38626E-2,-5.476571E-2,-2.3683654E-3,4.55892E-2,9.996135E-2,-8.4377535E-2,-4.564111E-2,-1.5234974E-2,8.987553E-3,3.2109424E-2,5.7420313E-2,8.571704E-2,1.3354425E-1,-9.977379E-2,-3.8252617E-3,-5.697955E-2,-4.0007696E-2,-2.2139993E-2,-1.133502E-2,3.9000413E-3,1.7797014E-2,3.2839835E-2,-1.8035838E-2,4.700005E-2,6.303374E-2,3.9262576E-3,4.725025E-3,1.2362502E-1,8.039614E-3,-5.021595E-3,-3.0436288E-4,-2.837286E-3,-4.73798E-4,-2.22164E-3,-1.7970222E-3,-1.1221663E-3,5.800251E-4,-5.834494E-4,8.0820173E-4,2.1685754E-4,-5.662485E-3,7.5918896E-4,1.2000158E-3,-1.0879467E-3,1.6541188E-3,-1.9940203E-4,-1.1437997E-3,5.746885E-4,2.378113E-3,3.1615251E-3,8.726558E-4,6.1713336E-3,1.6648626E-3],"categories":[],"categories_nodes":[],"categories_segments":[],"categories_sizes":[],"default_left":[0,0,0,0,0,0,0,0,0,0,0,0,0,0,0,0,0,0,0,0,0,0,0,0,0,0,0,0,0,0,0,0,0,0,0,0,0,0,0,0,0,0,0,0,0,0,0,0,0,0,0,0,0,0,0],"id":25,"left_children":[1,3,5,7,9,11,13,15,17,19,21,23,25,27,29,31,-1,33,35,37,39,41,43,45,47,49,51,-1,-1,53,-1,-1,-1,-1,-1,-1,-1,-1,-1,-1,-1,-1,-1,-1,-1,-1,-1,-1,-1,-1,-1,-1,-1,-1,-1],"loss_changes":[5.0965505E0,1.5377741E0,5.2451754E-1,2.4067593E-1,2.1506791E-1,5.333656E-2,1.6650486E-1,1.624453E-2,4.204905E-2,1.8330231E-2,3.497845E-2,6.5990686E-3,7.7416897E-3,9.034514E-3,1.0669827E-2,7.7031255E-3,0E0,1.2601018E-3,6.8198442E-3,4.1379035E-3,5.2847043E-3,2.7917497E-2,4.1979104E-3,4.9536973E-3,1.1784304E-4,1.6090423E-3,2.273053E-3,0E0,0E0,9.88245E-4,0E0,0E0,0E0,0E0,0E0,0E0,0E0,0E0,0E0,0E0,0E0,0E0,0E0,0E0,0E0,0E0,0E0,0E0,0E0,0E0,0E0,0E0,0E0,0E0,0E0],"parents":[2147483647,0,0,1,1,2,2,3,3,4,4,5,5,6,6,7,7,8,8,9,9,10,10,11,11,12,12,13,13,14,14,15,15,17,17,18,18,19,19,20,20,21,21,22,22,23,23,24,24,25,25,26,26,29,29],"right_children":[2,4,6,8,10,12,14,16,18,20,22,24,26,28,30,32,-1,34,36,38,40,42,44,46,48,50,52,-1,-1,54,-1,-1,-1,-1,-1,-1,-1,-1,-1,-1,-1,-1,-1,-1,-1,-1,-1,-1,-1,-1,-1,-1,-1,-1,-1],"split_conditions":[5.20665E-1,3.2495713E-1,6.952908E-1,1.930495E-1,4.1508123E-1,5.8606607E-1,8.2740295E-1,1.15638815E-1,2.5488064E-1,3.7257245E-1,4.7098243E-1,6.6710377E-1,6.18415E-1,7.366555E-1,9.3575436E-1,3.0260342E-1,-3.8252617E-3,4.1402408E-1,2.8351375E-1,4.5365188E-1,4.9831355E-1,7.366555E-1,5.035588E-1,3.8057306E-1,6.498914E-1,3.5913637E-1,7.4905884E-1,3.9262576E-3,4.725025E-3,1.4E1,8.039614E-3,-5.021595E-3,-3.0436288E-4,-2.837286E-3,-4.73798E-4,-2.22164E-3,-1.7970222E-3,-1.1221663E-3,5.800251E-4,-5.834494E-4,8.0820173E-4,2.1685754E-4,-5.662485E-3,7.5918896E-4,1.2000158E-3,-1.0879467E-3,1.6541188E-3,-1.9940203E-4,-1.1437997E-3,5.746885E-4,2.378113E-3,3.1615251E-3,8.726558E-4,6.1713336E-3,1.6648626E-3],"split_indices":[245,245,245,245,245,240,245,245,245,245,245,40,245,240,245,0,0,100,245,185,175,100,240,220,0,5,145,0,0,206,0,0,0,0,0,0,0,0,0,0,0,0,0,0,0,0,0,0,0,0,0,0,0,0,0],"split_type":[0,0,0,0,0,0,0,0,0,0,0,0,0,0,0,0,0,0,0,0,0,0,0,0,0,0,0,0,0,0,0,0,0,0,0,0,0,0,0,0,0,0,0,0,0,0,0,0,0,0,0,0,0,0,0],"sum_hessian":[3.09E3,2.374E3,7.16E2,9.04E2,1.47E3,3.45E2,3.71E2,2.11E2,6.93E2,6.89E2,7.81E2,1.63E2,1.82E2,2.63E2,1.08E2,6.4E1,1.47E2,2.27E2,4.66E2,2.47E2,4.42E2,4.96E2,2.85E2,1.61E2,2E0,6.7E1,1.15E2,1.6E2,1.03E2,8.4E1,2.4E1,6.3E1,1E0,2.26E2,1E0,2.03E2,2.63E2,2.44E2,3E0,4.36E2,6E0,4.95E2,1E0,2.07E2,7.8E1,1E0,1.6E2,1E0,1E0,2E0,6.5E1,1.13E2,2E0,8.3E1,1E0],"tree_param":{"num_deleted":"0","num_feature":"250","num_nodes":"55","size_leaf_vector":"1"}},{"base_weights":[1.9674386E-4,-2.3009807E-2,6.522616E-2,-5.2671585E-2,-3.8179143E-3,3.7288688E-2,9.212882E-2,-7.687671E-2,-4.260164E-2,-1.4459118E-2,7.1244603E-3,2.5943998E-2,4.8226148E-2,7.700562E-2,1.2281302E-1,-9.1695346E-2,-6.9368504E-2,-4.9648095E-2,-3.5727642E-2,-2.1651588E-2,-1.0441967E-2,7.460567E-3,-5.521916E-3,7.8946175E-3,2.675742E-2,4.8687324E-2,-1.1154049E-3,7.12125E-2,4.223148E-3,1.08261615E-1,6.8859076E-3,-4.599746E-3,-2.9680697E-4,-3.7471969E-3,-3.1815285E-3,-2.7385864E-3,-2.2638557E-3,-1.7891903E-3,4.6857772E-4,-8.1934157E-4,-1.2333794E-3,-5.4537284E-4,4.351903E-4,1.7336487E-4,7.110052E-4,-2.685678E-4,5.9066626E-4,1.3986598E-3,9.894603E-4,9.828633E-5,2.439993E-3,9.1771263E-4,3.5457755E-3,5.4965615E-3,3.0624438E-3],"categories":[],"categories_nodes":[],"categories_segments":[],"categories_sizes":[],"default_left":[0,0,0,0,0,0,0,0,0,0,0,0,0,0,0,0,0,0,0,0,0,0,0,0,0,0,0,0,0,0,0,0,0,0,0,0,0,0,0,0,0,0,0,0,0,0,0,0,0,0,0,0,0,0,0],"id":26,"left_children":[1,3,5,7,9,11,13,15,17,19,21,23,25,27,29,31,33,35,37,39,41,43,-1,45,47,49,-1,51,-1,53,-1,-1,-1,-1,-1,-1,-1,-1,-1,-1,-1,-1,-1,-1,-1,-1,-1,-1,-1,-1,-1,-1,-1,-1,-1],"loss_changes":[4.6706824E0,1.2982937E0,6.083605E-1,2.1511984E-1,1.6148889E-1,4.8505723E-2,1.8265676E-1,2.2789598E-2,2.8983831E-2,2.0085856E-2,2.8036397E-2,2.7104318E-3,7.7118278E-3,7.006645E-3,1.6175985E-2,6.3625574E-3,9.1040134E-4,4.4277906E-3,4.8740506E-3,3.7130937E-3,4.8167035E-3,1.854515E-2,0E0,5.967937E-4,1.2722611E-3,4.216194E-3,0E0,4.964471E-4,0E0,1.7164946E-3,0E0,0E0,0E0,0E0,0E0,0E0,0E0,0E0,0E0,0E0,0E0,0E0,0E0,0E0,0E0,0E0,0E0,0E0,0E0,0E0,0E0,0E0,0E0,0E0,0E0],"parents":[2147483647,0,0,1,1,2,2,3,3,4,4,5,5,6,6,7,7,8,8,9,9,10,10,11,11,12,12,13,13,14,14,15,15,16,16,17,17,18,18,19,19,20,20,21,21,23,23,24,24,25,25,27,27,29,29],"right_children":[2,4,6,8,10,12,14,16,18,20,22,24,26,28,30,32,34,36,38,40,42,44,-1,46,48,50,-1,52,-1,54,-1,-1,-1,-1,-1,-1,-1,-1,-1,-1,-1,-1,-1,-1,-1,-1,-1,-1,-1,-1,-1,-1,-1,-1,-1],"split_conditions":[5.0550985E-1,3.2495713E-1,6.6710377E-1,2.0786999E-1,4.1508123E-1,5.614235E-1,7.8689605E-1,1.3076474E-1,2.74884E-1,3.7257245E-1,7.425538E-1,4.635924E-1,7.239439E-1,7.239439E-1,8.9081454E-1,3.0260342E-1,1.6984221E-1,2.370588E-1,3.8698003E-1,4E0,4.4733036E-1,4.6605027E-1,-5.521916E-3,3.5752344E-1,4E0,3E0,-1.1154049E-3,4.728293E-1,4.223148E-3,1.4E1,6.8859076E-3,-4.599746E-3,-2.9680697E-4,-3.7471969E-3,-3.1815285E-3,-2.7385864E-3,-2.2638557E-3,-1.7891903E-3,4.6857772E-4,-8.1934157E-4,-1.2333794E-3,-5.4537284E-4,4.351903E-4,1.7336487E-4,7.110052E-4,-2.685678E-4,5.9066626E-4,1.3986598E-3,9.894603E-4,9.828633E-5,2.439993E-3,9.1771263E-4,3.5457755E-3,5.4965615E-3,3.0624438E-3],"split_indices":[245,245,245,245,245,245,245,245,245,245,100,220,45,245,235,0,245,245,220,2,225,245,0,120,117,146,0,45,0,206,0,0,0,0,0,0,0,0,0,0,0,0,0,0,0,0,0,0,0,0,0,0,0,0,0],"split_type":[0,0,0,0,0,0,0,0,0,0,0,0,0,0,0,0,0,0,0,0,0,0,0,0,0,0,0,0,0,0,0,0,0,0,0,0,0,0,0,0,0,0,0,0,0,0,0,0,0,0,0,0,0,0,0],"sum_hessian":[3.093E3,2.28E3,8.13E2,8.95E2,1.385E3,4E2,4.13E2,2.61E2,6.34E2,7.02E2,6.83E2,1.98E2,2.02E2,2.79E2,1.34E2,8.4E1,1.77E2,3.1E2,3.24E2,2.5E2,4.52E2,6.82E2,1E0,9E0,1.89E2,2.01E2,1E0,1.68E2,1.11E2,7.4E1,6E1,8.3E1,1E0,7.6E1,1.01E2,1.26E2,1.84E2,3.22E2,2E0,9.8E1,1.52E2,4.4E2,1.2E1,4.33E2,2.49E2,2E0,7E0,1.54E2,3.5E1,2E0,1.99E2,1E0,1.67E2,6.9E1,5E0],"tree_param":{"num_deleted":"0","num_feature":"250","num_nodes":"55","size_leaf_vector":"1"}},{"base_weights":[5.6606246E-4,-1.9340757E-2,7.013769E-2,-4.79092E-2,-2.750979E-4,5.7068188E-2,1.14627406E-1,-7.070492E-2,-3.8289886E-2,-1.0337699E-2,1.1255375E-2,3.8454995E-2,7.054064E-2,1.0768884E-1,7.3487703E-3,-8.712306E-2,-6.288901E-2,-4.3927882E-2,-3.0361252E-2,-1.5490789E-2,-4.840067E-3,6.727323E-3,1.8184394E-2,3.2774404E-2,4.7492508E-2,6.549774E-2,3.8942168E-3,5.50882E-3,3.925814E-3,-4.064748E-3,-6.192685E-3,-3.391068E-3,-2.8305661E-3,-2.5310873E-3,-2.05653E-3,-1.5316219E-3,1.5440317E-4,-9.526005E-4,-6.171494E-4,-2.1207736E-4,-5.384836E-3,1.9774223E-3,3.1695128E-4,9.3093695E-4,-2.6559288E-4,-6.950456E-4,1.665368E-3,-1.4777278E-4,2.389562E-3,8.5004943E-4,3.272513E-3],"categories":[],"categories_nodes":[],"categories_segments":[],"categories_sizes":[],"default_left":[0,0,0,0,0,0,0,0,0,0,0,0,0,0,0,0,0,0,0,0,0,0,0,0,0,0,0,0,0,0,0,0,0,0,0,0,0,0,0,0,0,0,0,0,0,0,0,0,0,0,0],"id":27,"left_children":[1,3,5,7,9,11,13,15,17,19,21,23,25,27,-1,29,31,33,35,37,39,41,43,45,47,49,-1,-1,-1,-1,-1,-1,-1,-1,-1,-1,-1,-1,-1,-1,-1,-1,-1,-1,-1,-1,-1,-1,-1,-1,-1],"loss_changes":[4.2766967E0,1.3077543E0,3.9292026E-1,2.0801997E-1,1.6731063E-1,1.309452E-1,1.9966602E-2,3.0964494E-2,2.8974056E-2,2.1738969E-2,2.0961642E-2,1.0045975E-2,7.123351E-3,3.5631657E-3,0E0,7.3729753E-3,2.3402572E-3,4.852891E-3,4.7465563E-3,4.252121E-3,2.1570219E-2,4.3850895E-3,3.6291182E-3,5.571738E-3,2.8726757E-3,2.7639866E-3,0E0,0E0,0E0,0E0,0E0,0E0,0E0,0E0,0E0,0E0,0E0,0E0,0E0,0E0,0E0,0E0,0E0,0E0,0E0,0E0,0E0,0E0,0E0,0E0,0E0],"parents":[2147483647,0,0,1,1,2,2,3,3,4,4,5,5,6,6,7,7,8,8,9,9,10,10,11,11,12,12,13,13,15,15,16,16,17,17,18,18,19,19,20,20,21,21,22,22,23,23,24,24,25,25],"right_children":[2,4,6,8,10,12,14,16,18,20,22,24,26,28,-1,30,32,34,36,38,40,42,44,46,48,50,-1,-1,-1,-1,-1,-1,-1,-1,-1,-1,-1,-1,-1,-1,-1,-1,-1,-1,-1,-1,-1,-1,-1,-1,-1],"split_conditions":[5.302476E-1,3.403941E-1,7.665919E-1,2.1618104E-1,4.3059856E-1,6.415174E-1,9.3575436E-1,1.3914901E-1,2.897144E-1,3.962812E-1,4.821346E-1,5.9627914E-1,7.203654E-1,1.4E1,7.3487703E-3,2.3E1,1.876892E-1,2.4274735E-1,4.049521E-1,3.7078035E-1,7.366555E-1,3.8774243E-1,6.18415E-1,4.876431E-1,5.8606607E-1,5.572013E-1,3.8942168E-3,5.50882E-3,3.925814E-3,-4.064748E-3,-6.192685E-3,-3.391068E-3,-2.8305661E-3,-2.5310873E-3,-2.05653E-3,-1.5316219E-3,1.5440317E-4,-9.526005E-4,-6.171494E-4,-2.1207736E-4,-5.384836E-3,1.9774223E-3,3.1695128E-4,9.3093695E-4,-2.6559288E-4,-6.950456E-4,1.665368E-3,-1.4777278E-4,2.389562E-3,8.5004943E-4,3.272513E-3],"split_indices":[245,235,245,245,245,245,245,245,245,245,245,245,245,206,0,6,245,245,210,245,85,235,70,240,240,180,0,0,0,0,0,0,0,0,0,0,0,0,0,0,0,0,0,0,0,0,0,0,0,0,0],"split_type":[0,0,0,0,0,0,0,0,0,0,0,0,0,0,0,0,0,0,0,0,0,0,0,0,0,0,0,0,0,0,0,0,0,0,0,0,0,0,0,0,0,0,0,0,0,0,0,0,0,0,0],"sum_hessian":[3.086E3,2.4E3,6.86E2,9.6E2,1.44E3,5.32E2,1.54E2,2.83E2,6.77E2,7.69E2,6.71E2,2.25E2,3.07E2,1.31E2,2.3E1,8.8E1,1.95E2,3.93E2,2.84E2,3.96E2,3.73E2,4.07E2,2.64E2,1.41E2,8.4E1,1.93E2,1.14E2,1.15E2,1.6E1,8E1,8E0,9.6E1,9.9E1,9.8E1,2.95E2,2.8E2,4E0,1.77E2,2.19E2,3.72E2,1E0,3E0,4.04E2,2.58E2,6E0,2E0,1.39E2,1E0,8.3E1,2E0,1.91E2],"tree_param":{"num_deleted":"0","num_feature":"250","num_nodes":"51","size_leaf_vector":"1"}},{"base_weights":[6.349708E-4,-1.9447055E-2,6.2004607E-2,-4.658367E-2,-2.260846E-3,4.402841E-2,9.443753E-2,-7.29895E-2,-3.8209856E-2,-1.3886929E-2,6.1516264E-3,3.0365786E-2,5.8831163E-2,7.97447E-2,1.19058706E-1,-6.6076435E-2,-9.227591E-2,-4.4769794E-2,-3.0556772E-2,-1.9837735E-2,-1.1065587E-2,9.810613E-4,1.3208939E-2,2.4368862E-2,3.7832294E-2,5.0560903E-2,6.372981E-2,3.6972123E-3,9.1014415E-2,5.434189E-3,6.94368E-3,-3.2975182E-3,-2.6579096E-4,-4.0641422E-3,-6.0964115E-3,-2.5205526E-3,-2.027147E-3,-1.5409334E-3,3.0533058E-4,2.9940798E-4,-9.999471E-4,-5.5795227E-4,1.4829311E-3,7.059916E-5,-5.251159E-3,6.7539775E-4,-8.421991E-4,6.7344045E-5,1.2332338E-3,1.9149551E-3,-1.129057E-3,3.155773E-4,2.530742E-3,8.136906E-4,3.1748158E-3,4.601013E-3,1.6698397E-3],"categories":[],"categories_nodes":[],"categories_segments":[],"categories_sizes":[],"default_left":[0,0,0,0,0,0,0,0,0,0,0,0,0,0,0,0,0,0,0,0,0,0,0,0,0,0,0,0,0,0,0,0,0,0,0,0,0,0,0,0,0,0,0,0,0,0,0,0,0,0,0,0,0,0,0,0,0],"id":28,"left_children":[1,3,5,7,9,11,13,15,17,19,21,23,25,27,29,31,33,35,37,39,41,43,45,47,49,51,53,-1,55,-1,-1,-1,-1,-1,-1,-1,-1,-1,-1,-1,-1,-1,-1,-1,-1,-1,-1,-1,-1,-1,-1,-1,-1,-1,-1,-1,-1],"loss_changes":[3.8389823E0,1.0944781E0,4.436021E-1,1.9842792E-1,1.4072771E-1,9.8526835E-2,8.926463E-2,2.2968292E-2,3.3423185E-2,9.921193E-3,3.0456435E-2,1.0719851E-2,6.379366E-3,3.5727024E-3,4.6719313E-3,3.0273795E-3,7.4344575E-3,6.694913E-3,5.8764815E-3,1.6314238E-3,3.2408834E-3,2.288213E-2,4.431527E-3,1.5562698E-3,5.9683025E-3,1.3672858E-3,4.274249E-4,0E0,1.7287135E-3,0E0,0E0,0E0,0E0,0E0,0E0,0E0,0E0,0E0,0E0,0E0,0E0,0E0,0E0,0E0,0E0,0E0,0E0,0E0,0E0,0E0,0E0,0E0,0E0,0E0,0E0,0E0,0E0],"parents":[2147483647,0,0,1,1,2,2,3,3,4,4,5,5,6,6,7,7,8,8,9,9,10,10,11,11,12,12,13,13,14,14,15,15,16,16,17,17,18,18,19,19,20,20,21,21,22,22,23,23,24,24,25,25,26,26,28,28],"right_children":[2,4,6,8,10,12,14,16,18,20,22,24,26,28,30,32,34,36,38,40,42,44,46,48,50,52,54,-1,56,-1,-1,-1,-1,-1,-1,-1,-1,-1,-1,-1,-1,-1,-1,-1,-1,-1,-1,-1,-1,-1,-1,-1,-1,-1,-1,-1,-1],"split_conditions":[5.141015E-1,3.2862657E-1,7.168753E-1,1.9746143E-1,4.0767246E-1,6.124993E-1,8.4015566E-1,6E0,2.7923563E-1,3.6600864E-1,4.6031618E-1,5.614235E-1,6.6710377E-1,7.665919E-1,9.3575436E-1,3.2255727E-1,2.3E1,2.370588E-1,3.6294672E-1,2.1618104E-1,7.425538E-1,7.425538E-1,6.415174E-1,3.1832778E-1,7.239439E-1,5.2051497E-1,4.728293E-1,3.6972123E-3,9.5326644E-1,5.434189E-3,6.94368E-3,-3.2975182E-3,-2.6579096E-4,-4.0641422E-3,-6.0964115E-3,-2.5205526E-3,-2.027147E-3,-1.5409334E-3,3.0533058E-4,2.9940798E-4,-9.999471E-4,-5.5795227E-4,1.4829311E-3,7.059916E-5,-5.251159E-3,6.7539775E-4,-8.421991E-4,6.7344045E-5,1.2332338E-3,1.9149551E-3,-1.129057E-3,3.155773E-4,2.530742E-3,8.136906E-4,3.1748158E-3,4.601013E-3,1.6698397E-3],"split_indices":[245,245,245,245,245,245,235,2,245,245,245,245,245,245,245,0,1,245,230,90,50,90,80,30,45,180,45,0,20,0,0,0,0,0,0,0,0,0,0,0,0,0,0,0,0,0,0,0,0,0,0,0,0,0,0,0,0],"split_type":[0,0,0,0,0,0,0,0,0,0,0,0,0,0,0,0,0,0,0,0,0,0,0,0,0,0,0,0,0,0,0,0,0,0,0,0,0,0,0,0,0,0,0,0,0,0,0,0,0,0,0,0,0,0,0,0,0],"sum_hessian":[3.113E3,2.346E3,7.67E2,9.09E2,1.437E3,4.95E2,2.72E2,2.17E2,6.92E2,6.03E2,8.34E2,2.59E2,2.36E2,1.73E2,9.9E1,1.63E2,5.4E1,3.7E2,3.22E2,1.92E2,4.11E2,4.82E2,3.52E2,1.46E2,1.13E2,9.2E1,1.44E2,1.23E2,5E1,7.2E1,2.7E1,1.62E2,1E0,4.3E1,1.1E1,1.42E2,2.28E2,3.18E2,4E0,2E0,1.9E2,4.1E2,1E0,4.81E2,1E0,3.48E2,4E0,3E0,1.43E2,1.12E2,1E0,1E0,9.1E1,1E0,1.43E2,4.8E1,2E0],"tree_param":{"num_deleted":"0","num_feature":"250","num_nodes":"57","size_leaf_vector":"1"}},{"base_weights":[-1.3490852E-4,-1.7143795E-2,6.5452E-2,-4.2936806E-2,7.72412E-4,5.4485925E-2,1.05236545E-1,-6.295673E-2,-3.3856183E-2,-8.507219E-3,1.1963039E-2,3.9257113E-2,6.667019E-2,4.710996E-3,6.1088167E-3,-7.349951E-2,-2.624752E-3,-4.0279515E-2,-2.8070481E-2,-1.4265623E-2,-4.0706005E-3,6.2354305E-3,1.6689686E-2,3.339379E-2,4.657458E-2,3.05605E-3,7.2529435E-2,-4.8538162E-3,-3.4282408E-3,-2.256276E-3,-1.8582883E-3,-1.429156E-3,-2.1625555E-4,-7.275093E-4,9.2622824E-5,-1.797927E-4,-5.1208003E-3,1.967216E-3,2.8621775E-4,6.8431045E-4,1.0596085E-3,-1.151795E-3,1.68893E-3,3.0774245E-4,2.329892E-3,3.6138413E-3,1.0132546E-3],"categories":[],"categories_nodes":[],"categories_segments":[],"categories_sizes":[],"default_left":[0,0,0,0,0,0,0,0,0,0,0,0,0,0,0,0,0,0,0,0,0,0,0,0,0,0,0,0,0,0,0,0,0,0,0,0,0,0,0,0,0,0,0,0,0,0,0],"id":29,"left_children":[1,3,5,7,9,11,13,15,17,19,21,23,25,-1,-1,27,-1,29,31,33,35,37,39,41,43,-1,45,-1,-1,-1,-1,-1,-1,-1,-1,-1,-1,-1,-1,-1,-1,-1,-1,-1,-1,-1,-1],"loss_changes":[3.4615903E0,1.1386795E0,2.7304912E-1,1.8147969E-1,1.5119609E-1,9.071517E-2,1.357162E-2,2.9519677E-2,2.4772286E-2,2.0278018E-2,1.7763697E-2,8.14116E-3,3.871441E-3,0E0,0E0,9.554446E-3,0E0,3.1292439E-3,6.144047E-3,2.1891296E-3,1.9703511E-2,4.485608E-3,4.587643E-3,5.339995E-3,1.1033416E-3,0E0,1.809001E-4,0E0,0E0,0E0,0E0,0E0,0E0,0E0,0E0,0E0,0E0,0E0,0E0,0E0,0E0,0E0,0E0,0E0,0E0,0E0,0E0],"parents":[2147483647,0,0,1,1,2,2,3,3,4,4,5,5,6,6,7,7,8,8,9,9,10,10,11,11,12,12,15,15,17,17,18,18,19,19,20,20,21,21,22,22,23,23,24,24,26,26],"right_children":[2,4,6,8,10,12,14,16,18,20,22,24,26,-1,-1,28,-1,30,32,34,36,38,40,42,44,-1,46,-1,-1,-1,-1,-1,-1,-1,-1,-1,-1,-1,-1,-1,-1,-1,-1,-1,-1,-1,-1],"split_conditions":[5.4578114E-1,3.4614685E-1,7.8689605E-1,2.1864232E-1,4.383313E-1,6.6710377E-1,9.057408E-1,1.630041E-1,2.8233168E-1,3.9432317E-1,4.737426E-1,6.082565E-1,7.203654E-1,4.710996E-3,6.1088167E-3,8.376215E-2,-2.624752E-3,2.494915E-1,4.3537226E-1,4.886656E-1,7.425538E-1,3.8774243E-1,5.1136655E-1,3.8698515E-1,5.24548E-1,3.05605E-3,9.5326644E-1,-4.8538162E-3,-3.4282408E-3,-2.256276E-3,-1.8582883E-3,-1.429156E-3,-2.1625555E-4,-7.275093E-4,9.2622824E-5,-1.797927E-4,-5.1208003E-3,1.967216E-3,2.8621775E-4,6.8431045E-4,1.0596085E-3,-1.151795E-3,1.68893E-3,3.0774245E-4,2.329892E-3,3.6138413E-3,1.0132546E-3],"split_indices":[245,245,235,230,245,245,240,245,245,245,245,245,245,0,0,245,0,245,85,130,90,235,240,215,185,0,20,0,0,0,0,0,0,0,0,0,0,0,0,0,0,0,0,0,0,0,0],"split_type":[0,0,0,0,0,0,0,0,0,0,0,0,0,0,0,0,0,0,0,0,0,0,0,0,0,0,0,0,0,0,0,0,0,0,0,0,0,0,0,0,0,0,0,0,0,0,0],"sum_hessian":[3.101E3,2.463E3,6.38E2,1.009E3,1.454E3,5.02E2,1.36E2,3.13E2,6.96E2,7.95E2,6.59E2,2.25E2,2.77E2,9E1,4.6E1,1.5E2,1.63E2,3.27E2,3.69E2,3.45E2,4.5E2,2.99E2,3.6E2,1.28E2,9.7E1,1.54E2,1.23E2,2E1,1.3E2,1.11E2,2.16E2,3.58E2,1.1E1,3.37E2,8E0,4.49E2,1E0,3E0,2.96E2,2.24E2,1.36E2,1E0,1.27E2,1E0,9.6E1,1.22E2,1E0],"tree_param":{"num_deleted":"0","num_feature":"250","num_nodes":"47","size_leaf_vector":"1"}},{"base_weights":[-2.5756855E-4,-1.635397E-2,6.356186E-2,-4.2289052E-2,-3.66352E-4,5.156188E-2,9.8407306E-2,-6.7266524E-2,-3.5450693E-2,-8.757046E-3,1.1368082E-2,3.646536E-2,6.178525E-2,4.4205333E-3,6.076874E-3,-9.4269484E-2,-3.1150917E-3,-4.4510692E-2,-3.0374963E-2,-1.4043028E-2,-3.2097024E-3,7.730846E-3,1.938964E-2,3.6899608E-2,-1.1429555E-3,5.557455E-2,3.2483279E-3,-4.7886283E-3,-9.334962E-4,-9.0597325E-4,-2.22644E-3,-1.5395877E-3,-2.5843724E-4,-9.3780854E-4,-5.861502E-4,-1.3686997E-4,-4.993678E-3,2.3219088E-4,5.644943E-4,-7.4583804E-5,9.898014E-4,-1.123202E-3,1.8536209E-3,7.966123E-4,2.7700374E-3],"categories":[],"categories_nodes":[],"categories_segments":[],"categories_sizes":[],"default_left":[0,0,0,0,0,0,0,0,0,0,0,0,0,0,0,0,0,0,0,0,0,0,0,0,0,0,0,0,0,0,0,0,0,0,0,0,0,0,0,0,0,0,0,0,0],"id":30,"left_children":[1,3,5,7,9,11,13,15,17,19,21,23,25,-1,-1,27,-1,29,31,33,35,37,39,41,-1,43,-1,-1,-1,-1,-1,-1,-1,-1,-1,-1,-1,-1,-1,-1,-1,-1,-1,-1,-1],"loss_changes":[3.1876097E0,1.0274628E0,2.5626636E-1,1.5902615E-1,1.5113725E-1,6.982255E-2,2.4849892E-2,1.8765748E-2,3.286165E-2,2.6199155E-2,1.8522933E-2,5.78326E-3,2.6262999E-3,0E0,0E0,2.6275218E-3,0E0,1.4964342E-3,7.5013638E-3,4.742071E-3,1.9040886E-2,4.8590675E-3,2.3007318E-3,5.7599247E-3,0E0,4.181266E-5,0E0,0E0,0E0,0E0,0E0,0E0,0E0,0E0,0E0,0E0,0E0,0E0,0E0,0E0,0E0,0E0,0E0,0E0,0E0],"parents":[2147483647,0,0,1,1,2,2,3,3,4,4,5,5,6,6,7,7,8,8,9,9,10,10,11,11,12,12,15,15,17,17,18,18,19,19,20,20,21,21,22,22,23,23,25,25],"right_children":[2,4,6,8,10,12,14,16,18,20,22,24,26,-1,-1,28,-1,30,32,34,36,38,40,42,-1,44,-1,-1,-1,-1,-1,-1,-1,-1,-1,-1,-1,-1,-1,-1,-1,-1,-1,-1,-1],"split_conditions":[5.4578114E-1,3.2862657E-1,7.601685E-1,1.876892E-1,4.4037881E-1,6.498914E-1,9.217971E-1,8.376215E-2,2.571817E-1,3.9738223E-1,4.983661E-1,7.366555E-1,7.062391E-1,4.4205333E-3,6.076874E-3,2.9800656E-1,-3.1150917E-3,1.3076474E-1,3.8129517E-1,3.5706583E-1,7.203654E-1,4.6809432E-1,4.3890086E-1,3.8698515E-1,-1.1429555E-3,4.7130698E-1,3.2483279E-3,-4.7886283E-3,-9.334962E-4,-9.0597325E-4,-2.22644E-3,-1.5395877E-3,-2.5843724E-4,-9.3780854E-4,-5.861502E-4,-1.3686997E-4,-4.993678E-3,2.3219088E-4,5.644943E-4,-7.4583804E-5,9.898014E-4,-1.123202E-3,1.8536209E-3,7.966123E-4,2.7700374E-3],"split_indices":[245,245,245,245,245,245,230,245,245,245,245,75,245,0,0,5,0,0,190,245,90,235,225,215,0,40,0,0,0,0,0,0,0,0,0,0,0,0,0,0,0,0,0,0,0],"split_type":[0,0,0,0,0,0,0,0,0,0,0,0,0,0,0,0,0,0,0,0,0,0,0,0,0,0,0,0,0,0,0,0,0,0,0,0,0,0,0,0,0,0,0,0,0],"sum_hessian":[3.101E3,2.477E3,6.24E2,9.44E2,1.533E3,4.66E2,1.58E2,2.01E2,7.43E2,8.94E2,6.39E2,1.9E2,2.76E2,1.17E2,4.1E1,2.6E1,1.75E2,2.64E2,4.79E2,4.57E2,4.37E2,4.41E2,1.98E2,1.89E2,1E0,1.08E2,1.68E2,2.5E1,1E0,4E0,2.6E2,4.67E2,1.2E1,1.42E2,3.15E2,4.36E2,1E0,2.41E2,2E2,5E0,1.93E2,1E0,1.88E2,1E0,1.07E2],"tree_param":{"num_deleted":"0","num_feature":"250","num_nodes":"45","size_leaf_vector":"1"}},{"base_weights":[1.7442809E-4,-1.656455E-2,5.303177E-2,-3.9576333E-2,-1.5123667E-3,3.7617106E-2,8.0985226E-2,-5.732522E-2,-3.1210955E-2,-1.027514E-2,6.3901236E-3,2.6723055E-2,5.0898157E-2,6.821934E-2,1.0348253E-1,-6.980919E-2,-5.07638E-2,-3.493561E-2,-2.4187667E-2,-1.6768847E-2,-8.137007E-3,1.5960408E-3,1.0300279E-2,2.1078303E-2,3.3719957E-2,4.0402245E-2,5.325978E-2,3.1320993E-3,7.5701736E-2,4.611133E-3,5.792696E-3,-4.761798E-3,-3.1432023E-3,-2.3689447E-3,-2.9860274E-3,-1.9868542E-3,-1.6066796E-3,-1.243555E-3,-2.619383E-4,-1.783009E-4,-9.007075E-4,-4.4506008E-4,1.513088E-4,1.0792807E-3,6.104039E-5,3.8427484E-4,6.9712783E-4,4.3347824E-4,1.0963306E-3,-1.4073303E-4,1.706679E-3,2.0808906E-3,7.3627225E-4,8.454299E-4,2.6603157E-3,3.8124558E-3,1.3735169E-3],"categories":[],"categories_nodes":[],"categories_segments":[],"categories_sizes":[],"default_left":[0,0,0,0,0,0,0,0,0,0,0,0,0,0,0,0,0,0,0,0,0,0,0,0,0,0,0,0,0,0,0,0,0,0,0,0,0,0,0,0,0,0,0,0,0,0,0,0,0,0,0,0,0,0,0,0,0],"id":31,"left_children":[1,3,5,7,9,11,13,15,17,19,21,23,25,27,29,31,33,35,37,39,41,43,45,47,49,51,53,-1,55,-1,-1,-1,-1,-1,-1,-1,-1,-1,-1,-1,-1,-1,-1,-1,-1,-1,-1,-1,-1,-1,-1,-1,-1,-1,-1,-1,-1],"loss_changes":[2.751653E0,8.18084E-1,3.1926155E-1,1.3688755E-1,9.902067E-2,6.866717E-2,6.904781E-2,2.0866096E-2,1.5818417E-2,9.27718E-3,1.4080254E-2,9.874105E-3,3.2269955E-3,1.8329024E-3,2.3169518E-3,1.0895878E-2,2.8232336E-3,4.123032E-3,3.5071522E-3,2.9553212E-3,4.7634654E-3,2.4765497E-3,3.8567E-3,1.6775802E-3,2.9213876E-3,1.0769591E-3,1.1195242E-3,0E0,1.2663305E-3,0E0,0E0,0E0,0E0,0E0,0E0,0E0,0E0,0E0,0E0,0E0,0E0,0E0,0E0,0E0,0E0,0E0,0E0,0E0,0E0,0E0,0E0,0E0,0E0,0E0,0E0,0E0,0E0],"parents":[2147483647,0,0,1,1,2,2,3,3,4,4,5,5,6,6,7,7,8,8,9,9,10,10,11,11,12,12,13,13,14,14,15,15,16,16,17,17,18,18,19,19,20,20,21,21,22,22,23,23,24,24,25,25,26,26,28,28],"right_children":[2,4,6,8,10,12,14,16,18,20,22,24,26,28,30,32,34,36,38,40,42,44,46,48,50,52,54,-1,56,-1,-1,-1,-1,-1,-1,-1,-1,-1,-1,-1,-1,-1,-1,-1,-1,-1,-1,-1,-1,-1,-1,-1,-1,-1,-1,-1,-1],"split_conditions":[5.141015E-1,3.2862657E-1,7.168753E-1,2.1864232E-1,4.1508123E-1,6.18415E-1,8.4015566E-1,1.4315061E-1,2.920936E-1,3.627544E-1,4.5524454E-1,5.614235E-1,6.334734E-1,7.601685E-1,9.217971E-1,2E0,2E1,2.5488064E-1,4.0178263E-1,2E0,4.854986E-1,3.838602E-1,4.8573336E-1,3.5101807E-1,3E0,6.498914E-1,4.8657486E-1,3.1320993E-3,9.5326644E-1,4.611133E-3,5.792696E-3,-4.761798E-3,-3.1432023E-3,-2.3689447E-3,-2.9860274E-3,-1.9868542E-3,-1.6066796E-3,-1.243555E-3,-2.619383E-4,-1.783009E-4,-9.007075E-4,-4.4506008E-4,1.513088E-4,1.0792807E-3,6.104039E-5,3.8427484E-4,6.9712783E-4,4.3347824E-4,1.0963306E-3,-1.4073303E-4,1.706679E-3,2.0808906E-3,7.3627225E-4,8.454299E-4,2.6603157E-3,3.8124558E-3,1.3735169E-3],"split_indices":[245,245,245,245,245,245,240,210,245,245,245,245,210,245,240,106,131,245,155,2,0,230,235,30,146,195,35,0,20,0,0,0,0,0,0,0,0,0,0,0,0,0,0,0,0,0,0,0,0,0,0,0,0,0,0,0,0],"split_type":[0,0,0,0,0,0,0,0,0,0,0,0,0,0,0,0,0,0,0,0,0,0,0,0,0,0,0,0,0,0,0,0,0,0,0,0,0,0,0,0,0,0,0,0,0,0,0,0,0,0,0,0,0,0,0,0,0],"sum_hessian":[3.108E3,2.361E3,7.47E2,9.33E2,1.428E3,4.83E2,2.64E2,2.97E2,6.36E2,6.77E2,7.51E2,2.67E2,2.16E2,1.71E2,9.3E1,9.9E1,1.98E2,4.13E2,2.23E2,1.66E2,5.11E2,3.38E2,4.13E2,1.5E2,1.17E2,4.3E1,1.73E2,1.07E2,6.4E1,5.6E1,3.7E1,1.7E1,8.2E1,1.54E2,4.4E1,1.34E2,2.79E2,2.13E2,